{"type":"NeuralNetwork","sizes":[117,20,20,78],"layers":[{"weights":[],"biases":[]},{"weights":[[-0.8382598161697388,-0.9670769572257996,-0.8804715275764465,-0.7823411226272583,0.7945025563240051,0.7187169194221497,1.4026005268096924,0.024563085287809372,1.4377837181091309,1.4527080059051514,0.19417330622673035,0.48772042989730835,0.0745842233300209,-0.03227606788277626,-0.07633350044488907,-0.006057356484234333,-1.2133973836898804,-1.3074634075164795,-1.3727154731750488,-1.31356942653656,-1.3021833896636963,0.7062236666679382,0.49514302611351013,-1.3040224313735962,-1.3397272825241089,-1.4201607704162598,-1.2080210447311401,1.2531828880310059,0.3277173340320587,1.2551182508468628,-1.2225475311279297,0.9451068043708801,0.17714959383010864,0.9733352661132812,1.123020052909851,0.8960975408554077,-1.4667041301727295,-0.45014670491218567,-0.026399843394756317,-0.5444421768188477,-1.637477159500122,-0.2017444670200348,-0.014477139338850975,0.37926504015922546,0.16815638542175293,-0.28461021184921265,1.8830851316452026,1.8223822116851807,1.7393609285354614,-0.12529076635837555,-0.7159613966941833,0.1572732925415039,0.1707945168018341,-1.218024730682373,0.4383821487426758,0.45651185512542725,0.010787921026349068,0.021517664194107056,-0.02743631601333618,-0.3720294237136841,-0.5235661268234253,-0.4613851010799408,0.18088845908641815,0.22198112308979034,0.4361596703529358,0.6965433955192566,0.06953314691781998,0.5518748760223389,0.5044873356819153,-0.4422091841697693,0.18200400471687317,-0.47290265560150146,0.4279078245162964,0.008852430619299412,0.2367434799671173,-0.01733124628663063,0.21156424283981323,0.21120931208133698,0.2764950692653656,-0.0737391859292984,0.3073069751262665,-0.12400927394628525,-0.10166328400373459,-0.025486549362540245,0.442026287317276,0.47310909628868103,-0.403708279132843,0.23427671194076538,0.38935837149620056,0.1003122553229332,0.1152145192027092,-0.43879052996635437,-0.23608602583408356,1.3941706418991089,-0.1205567792057991,-1.0887469053268433,0.2592886686325073,0.10535625368356705,-0.8884522914886475,0.7465881109237671,-0.9160029292106628,-1.2972030639648438,0.28775885701179504,-0.3965422511100769,0.174009770154953,0.0769890695810318,0.4083293080329895,-1.1666456460952759,0.2315463274717331,-0.7442519068717957,1.8677626848220825,0.2743757665157318,0.37799975275993347,0.24467486143112183,-0.9089246988296509,0.14730699360370636,0.038559336215257645],[-0.5870086550712585,-0.7741567492485046,-0.9318826198577881,-0.8724883794784546,-0.28978782892227173,-0.2677529752254486,-1.3250329494476318,0.09971397370100021,-0.504930853843689,-0.24413345754146576,-0.12029726058244705,-0.45496004819869995,0.876783549785614,0.9509237408638,0.21102717518806458,-0.01584457978606224,0.8910141587257385,0.901534914970398,0.8406780362129211,0.883077085018158,0.8563929796218872,0.71380615234375,0.6769484877586365,0.9128221273422241,0.8700240850448608,0.7230237126350403,0.5489289164543152,-1.1396628618240356,-0.13406586647033691,-1.135269284248352,0.6040817499160767,-0.22328446805477142,-0.11124871671199799,-1.4199310541152954,-1.8921089172363281,-1.4959299564361572,0.6718128323554993,0.07221001386642456,0.3144477307796478,0.6441361308097839,1.4365849494934082,0.1300201117992401,0.06022847071290016,0.475393682718277,0.5188876986503601,-0.11982875317335129,-1.3357566595077515,-1.1841484308242798,-1.2899272441864014,-1.2804969549179077,-1.2738591432571411,0.03647869452834129,-0.6934652924537659,1.3523030281066895,0.553838312625885,0.64151930809021,-1.1461774110794067,-0.9983961582183838,-1.0241719484329224,0.5909645557403564,1.0216929912567139,1.0591500997543335,-0.024470757693052292,0.22861382365226746,-0.30493342876434326,0.7217089533805847,-2.0029916763305664,-0.062422096729278564,0.2659408450126648,0.45056092739105225,0.06146616488695145,0.6585569977760315,0.2550286650657654,0.5365658402442932,0.09490323811769485,0.36935096979141235,-0.23676466941833496,0.012379935011267662,-0.3075160086154938,0.5324386358261108,-0.37484225630760193,0.3254084587097168,0.3595980107784271,0.5916019678115845,-0.130776047706604,0.17243804037570953,1.0305579900741577,0.0560111440718174,-0.0114087900146842,-0.23868077993392944,0.07187728583812714,0.4491344690322876,-0.08931773900985718,-1.4128211736679077,-0.03698642924427986,1.1551105976104736,-0.025919293984770775,-0.13958296179771423,-0.7832328677177429,0.7428467273712158,-0.9392791986465454,0.6764158606529236,-0.20522190630435944,0.027905916795134544,0.5279959440231323,-0.9964078068733215,-0.2998207211494446,0.862819254398346,-0.17395234107971191,0.8376885652542114,-1.2768791913986206,0.1721358597278595,0.6212630271911621,0.7143397927284241,0.970318078994751,-0.9858993887901306,0.36307457089424133],[-0.41713401675224304,-0.22326846420764923,-0.09565480798482895,-0.2734867036342621,-1.2471238374710083,-0.982690691947937,-0.7633351683616638,-0.16594372689723969,-0.31184858083724976,-0.34191668033599854,-0.09162510931491852,0.9043107032775879,-0.9862951636314392,-1.0040885210037231,0.017692213878035545,-0.043071143329143524,1.0741695165634155,1.1521867513656616,1.1897594928741455,1.1615104675292969,1.1996392011642456,0.4506775736808777,0.4483170807361603,0.9683669805526733,1.1201635599136353,1.0679471492767334,-0.7516530156135559,0.25547605752944946,-0.07248666882514954,0.03538566827774048,-0.7529544830322266,1.1050697565078735,1.4398431777954102,-2.114779233932495,-1.4596353769302368,-1.9355876445770264,0.24722491204738617,0.6995420455932617,0.39157834649086,0.5500189065933228,0.8454040884971619,0.07053379714488983,0.033962883055210114,-0.6297745108604431,-0.7051899433135986,0.2103651762008667,-0.9808517098426819,-0.8662626147270203,-0.9078443050384521,-0.36983615159988403,-1.4665080308914185,0.12482592463493347,0.33486509323120117,0.8388766646385193,1.2658133506774902,0.9003821015357971,-1.4727519750595093,-1.629606008529663,-1.4889612197875977,0.5252945423126221,0.12483140081167221,0.039545778185129166,1.3700331449508667,0.19592802226543427,0.2790045738220215,0.5536147952079773,-1.0714471340179443,0.04706844687461853,0.04051743820309639,0.39608097076416016,0.3092886805534363,-0.15233759582042694,0.4768460988998413,-0.35874083638191223,0.2163955122232437,0.17177744209766388,0.2662575840950012,-0.25452250242233276,0.3850899338722229,0.7013945579528809,0.02440156415104866,0.2754468619823456,0.4257354140281677,0.4042447805404663,0.10192956030368805,-0.027991414070129395,0.4200979173183441,0.004722964484244585,0.4096350371837616,-0.044859521090984344,-0.051192257553339005,0.42229241132736206,0.006593452300876379,-0.7411234974861145,-0.233708456158638,0.5032832026481628,-0.15082570910453796,0.31421953439712524,-0.2519931495189667,0.43062037229537964,-0.1490064561367035,-0.6221901178359985,0.09974355250597,0.222065269947052,0.9865156412124634,-1.4975062608718872,-0.03441396355628967,-0.34939852356910706,0.43232887983322144,0.19243401288986206,-0.7977144718170166,-0.7108047008514404,-0.8578580021858215,0.9753192067146301,1.1783591508865356,-1.523215651512146,0.3215230703353882],[-0.07010374218225479,-0.1116265058517456,-0.039810143411159515,-0.20468731224536896,-0.6001617312431335,-0.6944690942764282,-0.9293279051780701,-0.6247069239616394,-1.1301944255828857,-1.1275190114974976,0.6422051787376404,-0.8431344032287598,0.9670648574829102,1.1061357259750366,0.16139158606529236,0.5060365796089172,0.3179852366447449,0.03516678139567375,0.2573581039905548,0.28958749771118164,0.14983314275741577,-0.26599007844924927,-0.4174172580242157,0.045020315796136856,0.2739206552505493,0.2605981230735779,0.14121626317501068,0.5890649557113647,-0.11889912933111191,0.5742483735084534,-0.06771081686019897,1.3906607627868652,0.7000256776809692,-0.5909132361412048,-0.16494090855121613,-0.6811805963516235,0.3041289746761322,0.9557456374168396,0.22829408943653107,0.39886629581451416,1.0867249965667725,-0.013801779597997665,0.6192719340324402,0.19313746690750122,-1.5428475141525269,1.5216593742370605,-0.38289880752563477,-0.4098142087459564,-0.4128638803958893,1.4608259201049805,0.6443003416061401,0.15505966544151306,0.08570852130651474,0.561116635799408,-0.1383824199438095,-0.009118505753576756,-1.1585966348648071,-1.1367958784103394,-1.0521560907363892,0.1667102873325348,-1.4765952825546265,-1.4537101984024048,0.49808469414711,0.2056557685136795,-0.2077467143535614,-0.1897670179605484,0.8276990056037903,-0.043426938354969025,0.5114014148712158,0.3013221323490143,-0.07560938596725464,0.16615331172943115,-0.36243292689323425,0.013309921137988567,0.485586017370224,0.05868852511048317,0.029499076306819916,0.15631726384162903,0.1146201491355896,0.5625426173210144,0.06379582732915878,0.21065199375152588,0.22306548058986664,0.5279938578605652,-0.018229881301522255,0.026986101642251015,0.1964966207742691,-0.13810184597969055,0.2046932429075241,0.31512537598609924,-0.5083461403846741,0.6471552848815918,0.15811887383460999,-0.9416913390159607,-0.5141292810440063,-0.23567569255828857,0.5803385972976685,0.4391065835952759,-0.10149595886468887,-0.482121080160141,-0.07652980089187622,-0.09944843500852585,0.16155798733234406,1.4800920486450195,-0.38444268703460693,-1.208589792251587,-0.055796992033720016,-0.33222538232803345,-0.11625846475362778,0.23501436412334442,-0.36497971415519714,0.17199860513210297,-1.4520877599716187,-0.3693810701370239,1.2387735843658447,-1.0335787534713745,0.09223193675279617],[-0.19028247892856598,-0.01787538267672062,-0.0635719746351242,-0.39978185296058655,0.9493967294692993,1.0325652360916138,0.2869963049888611,0.02926699072122574,0.37910011410713196,0.3628234565258026,-0.11546050012111664,-0.38885751366615295,0.3952676057815552,0.5631959438323975,0.08943300694227219,0.031899407505989075,-1.0841752290725708,-1.1085020303726196,-1.224565029144287,-0.992304801940918,-1.1106494665145874,-0.10611537843942642,-0.028807003051042557,-1.2054342031478882,-1.2116459608078003,-1.1883323192596436,0.4822876751422882,-0.030399460345506668,0.0005358655471354723,-0.19964440166950226,0.3647178113460541,-0.8694212436676025,-1.0587257146835327,1.634114384651184,1.4143606424331665,1.4796171188354492,-0.1481916457414627,-0.32277441024780273,-0.21485553681850433,-0.13421447575092316,-0.1977251023054123,0.2236192673444748,-0.13599799573421478,0.5310290455818176,0.9169647693634033,-0.18601693212985992,0.5713663101196289,0.6012860536575317,0.8530552387237549,-0.43132737278938293,0.4299241900444031,-0.18506546318531036,-0.32111668586730957,-0.8413703441619873,-1.0683104991912842,-0.6982426643371582,0.6976681351661682,0.6493786573410034,0.5928882360458374,-0.3009031414985657,0.3009238839149475,0.02481587417423725,-1.1209259033203125,-0.04781372845172882,-0.0028236976359039545,-0.11736669391393661,0.48635634779930115,0.1787518411874771,0.06736154854297638,-0.04131177440285683,-0.08738001435995102,0.0795714408159256,-0.23814475536346436,0.28077712655067444,0.0034172155428677797,-0.19798240065574646,-0.12588484585285187,-0.03693995624780655,-0.231836199760437,-0.23590540885925293,0.26711952686309814,-0.2075003981590271,-0.27457061409950256,-0.3351248502731323,0.09980140626430511,0.08699937909841537,-0.23937012255191803,0.13809233903884888,-0.06656467914581299,0.08833010494709015,0.3595062494277954,-0.23120039701461792,0.18925097584724426,0.5929151773452759,0.29833099246025085,0.2478339523077011,0.2258758246898651,-0.05161947011947632,-0.27546226978302,-0.25110843777656555,-0.25444915890693665,0.3297271728515625,-0.043629687279462814,-0.26531699299812317,-0.5577823519706726,0.7169582843780518,0.05157175287604332,0.7983105182647705,0.13941186666488647,-0.09562110900878906,0.8583139777183533,0.4879024624824524,0.7504822015762329,-0.8163071870803833,-0.6773392558097839,0.7434787154197693,0.07757978141307831],[-1.869132399559021,-1.8094069957733154,-1.70087468624115,-1.7870864868164062,0.4083859324455261,0.3876875936985016,-1.2986693382263184,-0.46829476952552795,0.3452965319156647,0.12816080451011658,-0.16138267517089844,-0.7675191760063171,0.9656457304954529,0.9283603429794312,0.13189858198165894,0.30873364210128784,0.3021499216556549,-0.007164661772549152,0.2879551649093628,0.2097208946943283,0.16019004583358765,1.6564000844955444,1.6302870512008667,0.09989243745803833,0.015157941728830338,0.1873987317085266,-0.18096603453159332,-1.2126227617263794,0.19431401789188385,-1.1498252153396606,-0.11191179603338242,0.4467918872833252,-0.3170132040977478,-0.7267728447914124,-1.939570665359497,-0.8302615284919739,-0.28824496269226074,-0.012364791706204414,0.47645360231399536,0.5258307456970215,1.1636466979980469,0.3483072817325592,0.2074979990720749,1.0433578491210938,1.2176945209503174,-0.7701165676116943,-0.3802475035190582,-0.2740030288696289,-0.4258757531642914,-1.5695991516113281,-1.7506893873214722,0.0716865286231041,-0.8235924243927002,1.5112212896347046,1.2179988622665405,1.1884325742721558,-1.244026780128479,-1.302959680557251,-1.4971050024032593,0.345159113407135,0.3618444502353668,0.36212730407714844,-0.07578717917203903,0.23140551149845123,-0.2322753518819809,1.5845245122909546,-1.8210917711257935,0.5702909231185913,0.6013151407241821,-0.017282655462622643,0.08745535463094711,0.7624948620796204,0.2979775369167328,0.7854617238044739,0.3376656472682953,0.2903416156768799,-0.3332516551017761,0.0846090093255043,-0.012191069312393665,0.3278711438179016,-0.08405177295207977,0.01820453442633152,0.12123434245586395,0.7834596633911133,-0.07969386130571365,0.5890821814537048,0.8793231248855591,0.21768198907375336,-0.1269671469926834,0.13748084008693695,0.05096952244639397,0.5683899521827698,0.023373866453766823,-1.3524326086044312,-0.38070330023765564,1.219672679901123,0.27879655361175537,-0.12757790088653564,-1.7052816152572632,1.559255838394165,-1.7046446800231934,-0.1359882801771164,0.11631643027067184,-0.7620483636856079,1.2660458087921143,-1.402241826057434,-0.12785467505455017,0.8070287704467773,0.1815698742866516,0.5974129438400269,-0.23050375282764435,0.8720309138298035,1.0216203927993774,1.2010924816131592,1.0452152490615845,-1.4014335870742798,0.020933983847498894],[-1.4747356176376343,-1.4383492469787598,-1.5112245082855225,-1.5120190382003784,0.1189686581492424,-0.05297238752245903,-0.4844661056995392,-1.4133771657943726,1.0416247844696045,1.0921080112457275,0.4630209803581238,0.4798029065132141,-0.8382646441459656,-0.7978429794311523,0.2155703902244568,0.16249758005142212,-0.6509649753570557,-0.8063158988952637,-0.817036509513855,-0.6437894701957703,-0.8637077808380127,1.9680297374725342,1.984885334968567,-0.7548629641532898,-0.7085217833518982,-0.9118523597717285,-1.6788462400436401,-0.17794692516326904,0.6094053387641907,0.12332073599100113,-1.6117209196090698,1.5398470163345337,0.5332193374633789,0.26686805486679077,0.5847902894020081,0.425204873085022,-1.3644828796386719,-0.039470039308071136,-0.20811206102371216,0.28671663999557495,-0.6515107750892639,0.5522769093513489,-0.08936141431331635,0.5624022483825684,1.1827512979507446,-1.4032609462738037,0.6243019700050354,0.7105982303619385,0.6878852248191833,-1.2890629768371582,-1.5071368217468262,0.09529441595077515,-0.47782009840011597,0.4540414810180664,1.3822523355484009,1.1372458934783936,-0.8081833720207214,-0.6844295859336853,-0.6219722628593445,0.3806903660297394,0.028954071924090385,-0.18089066445827484,0.6335446834564209,0.5262771248817444,0.11405719816684723,1.9769684076309204,0.44534942507743835,0.41165298223495483,0.5632116794586182,-0.06348784267902374,0.4175902307033539,-0.6393334865570068,0.331198126077652,0.025993134826421738,0.5409367680549622,0.5311503410339355,0.5004457831382751,0.13130205869674683,0.4135870933532715,0.40916311740875244,0.21619407832622528,-0.35500577092170715,0.15635527670383453,0.4825228452682495,-0.03857269883155823,0.777519941329956,-0.20257572829723358,0.31158438324928284,0.5530922412872314,0.3767016530036926,0.20764298737049103,0.38572195172309875,0.19897091388702393,-0.5242835283279419,-1.4439789056777954,0.4729291796684265,0.21395741403102875,-0.10078174620866776,-1.4181091785430908,2.060617685317993,-1.4714184999465942,-1.6169124841690063,0.436813086271286,-1.3194445371627808,1.177693247795105,-0.7415915131568909,0.30697616934776306,-0.2402288317680359,0.8097754716873169,-0.4718326926231384,0.7548486590385437,0.8309789896011353,1.0121670961380005,1.2813823223114014,0.47061842679977417,-0.822352945804596,0.0025954588782042265],[0.4349222481250763,0.43119579553604126,0.2186112254858017,0.31655871868133545,-0.7351405024528503,-0.7347710132598877,0.3519090712070465,-0.2934233546257019,0.3768957853317261,0.4096511900424957,-0.06561190634965897,1.6145553588867188,-1.937048316001892,-1.8519091606140137,0.26586344838142395,-0.31243011355400085,0.7477790713310242,0.7112347483634949,0.7404158711433411,0.8726320266723633,0.8213231563568115,-0.4315749704837799,-0.5198513865470886,0.8066072463989258,0.7523910999298096,0.8266888856887817,-1.0499258041381836,0.4551543891429901,0.023115849122405052,0.40339139103889465,-0.9102678298950195,1.2486506700515747,1.1926559209823608,-1.7669072151184082,-0.10834644734859467,-1.577714204788208,0.08616800606250763,0.3192000091075897,0.020518388599157333,0.14195752143859863,-0.2629864811897278,0.28997763991355896,-0.5722478628158569,-0.7796562910079956,-0.7734289169311523,-0.08109193295240402,-0.288117378950119,-0.3490470051765442,-0.33070769906044006,0.19050036370754242,-1.3113059997558594,0.27654531598091125,1.1056475639343262,-0.919163703918457,1.1619665622711182,0.6551316976547241,-0.8650017380714417,-0.9335471391677856,-1.0196685791015625,-0.009085125289857388,-0.22581595182418823,-0.32653340697288513,1.2872216701507568,0.18074774742126465,0.38749778270721436,-0.350441575050354,0.4955352246761322,0.26328927278518677,-0.3600732088088989,0.16603106260299683,0.6130349040031433,-0.12564201653003693,0.32044944167137146,-0.29061147570610046,-0.03497933968901634,0.09761178493499756,0.5086723566055298,-0.5169090628623962,0.6542447805404663,0.5750481486320496,0.38052529096603394,0.1740196794271469,0.2816082239151001,0.23459817469120026,0.009825495071709156,0.20665283501148224,0.070724256336689,0.3193642199039459,0.3629353940486908,0.10189768671989441,0.175479456782341,-0.08268945664167404,0.12889201939105988,0.286935955286026,-0.1513124257326126,0.23325146734714508,-0.16496260464191437,0.3411414921283722,0.182120218873024,-0.6162537336349487,0.40786460041999817,-1.1176754236221313,0.4397886097431183,-0.08532692492008209,0.5818595886230469,-1.0081990957260132,-0.16264711320400238,-0.5819791555404663,0.5257867574691772,0.17408908903598785,-0.3288586735725403,-0.9365565776824951,-0.5937188863754272,0.833925187587738,0.1951439529657364,-0.9322181344032288,0.27449697256088257],[-0.2855001986026764,-0.13285604119300842,-0.33240824937820435,-0.37033116817474365,0.9341176748275757,0.8385169506072998,0.6235196590423584,1.2809500694274902,1.1852308511734009,1.3004257678985596,-0.48577436804771423,0.6307485103607178,0.015956532210111618,-0.08815189450979233,-0.0013756460975855589,-0.4264294505119324,-0.1463804394006729,-0.3717743456363678,-0.21737192571163177,-0.28797176480293274,-0.09543520212173462,-0.4778772294521332,-0.5542929172515869,-0.29427364468574524,-0.3477877974510193,-0.3770781457424164,0.6482192277908325,-0.9621098637580872,-0.06884511560201645,-1.014591097831726,0.6358096599578857,-1.3269155025482178,-0.7055792808532715,0.33202335238456726,-0.035873014479875565,0.40007656812667847,0.09014441817998886,-0.8946539163589478,-0.010412813164293766,0.03195346146821976,-0.6776950359344482,-0.1424287110567093,-0.6143969297409058,0.23612424731254578,1.3530384302139282,-0.5165939927101135,0.2717480957508087,0.22347764670848846,0.05824338272213936,-1.374881625175476,-1.007829189300537,-0.03443468362092972,0.03350204974412918,-0.506287157535553,-0.3441995084285736,0.04288661852478981,0.6914994716644287,0.726604700088501,0.7957593202590942,0.06644400209188461,1.4477717876434326,1.4700154066085815,-0.8317974805831909,0.1812911480665207,-0.1767352670431137,-0.32086896896362305,-1.6070623397827148,0.15350604057312012,-0.35950225591659546,-0.17384684085845947,-0.13599476218223572,0.7655277252197266,0.23669062554836273,0.4654597342014313,-0.5171185731887817,0.24108165502548218,-0.17722128331661224,0.10740160942077637,0.030179163441061974,-0.3556841313838959,-0.051588159054517746,-0.10908917337656021,-0.3273644745349884,0.14462260901927948,-0.12277863174676895,0.33671027421951294,0.5427691340446472,-0.07586894184350967,-0.07781065255403519,-0.19882479310035706,0.1319631040096283,-0.5993003249168396,-0.07205723226070404,0.4017198383808136,1.208789587020874,0.42481741309165955,-0.39925751090049744,-0.11645180732011795,-0.16704495251178741,-0.5842178463935852,-0.34957659244537354,0.38229700922966003,-0.3248876631259918,-0.5328488945960999,-0.13653036952018738,0.6364454030990601,0.13330358266830444,0.7036224603652954,-0.004483613185584545,0.45339664816856384,0.25146791338920593,0.061910852789878845,1.187831163406372,-0.19767585396766663,-0.6973061561584473,0.5609968900680542,-0.29503026604652405],[0.19404563307762146,0.33967018127441406,0.3496348559856415,0.40383821725845337,0.1964728832244873,0.09635131806135178,0.9594765901565552,0.4721452295780182,0.09591212123632431,0.09260813891887665,0.48368337750434875,-0.2499600052833557,0.6175796985626221,0.7328310608863831,0.09711303561925888,0.30434852838516235,-1.0533959865570068,-0.893894374370575,-0.9108573198318481,-0.9039266109466553,-0.9256292581558228,-1.1400583982467651,-1.1946450471878052,-1.0789847373962402,-0.9720119833946228,-0.9019293785095215,-0.3137620687484741,1.6750869750976562,0.16038908064365387,1.5304194688796997,-0.31827688217163086,0.9373329877853394,0.33948683738708496,0.7332141995429993,1.500646710395813,0.789027988910675,-0.03117498755455017,0.414149671792984,-0.10621935874223709,-0.5031603574752808,-1.0922951698303223,-0.49887770414352417,0.45243149995803833,-0.03500710800290108,-1.1593421697616577,1.2661457061767578,1.2487472295761108,1.3170889616012573,1.2484489679336548,1.7429276704788208,1.1634366512298584,0.1591581404209137,0.613798201084137,-1.3930374383926392,-1.256722331047058,-1.0954033136367798,-0.19049252569675446,0.1505657136440277,-0.0750112384557724,-0.17144691944122314,-1.4964395761489868,-1.5226116180419922,0.39485684037208557,-0.2729372978210449,0.23375588655471802,-1.1761300563812256,1.3454450368881226,0.12315288931131363,0.47674521803855896,-0.34445956349372864,0.1802852302789688,-0.2421509027481079,-0.38277995586395264,0.0021655128803104162,0.29532065987586975,-0.15854181349277496,0.3735637962818146,0.3718995451927185,0.0625726729631424,-0.05335422605276108,0.027018357068300247,-0.16869182884693146,-0.15811175107955933,-0.1585509032011032,0.36566540598869324,-0.3781525790691376,-0.6227407455444336,-0.1450846940279007,0.06061439961194992,0.2606786787509918,-0.12637843191623688,-0.21961787343025208,-0.05413535237312317,0.9731631278991699,0.6314563751220703,-1.4993091821670532,0.39613625407218933,0.40088239312171936,0.21634158492088318,-1.1020740270614624,0.32011353969573975,-0.11051231622695923,0.29592740535736084,1.543997883796692,-0.9773150086402893,0.1506703794002533,0.2174893170595169,-0.8713473677635193,-0.007071329280734062,-0.5366429090499878,1.324066162109375,0.048075541853904724,-1.385074257850647,-0.9434629082679749,-0.42555978894233704,-0.057854752987623215,-0.09400417655706406],[0.23935042321681976,0.1372193694114685,0.10921265184879303,0.04075739532709122,-0.12671451270580292,-0.06731761246919632,-0.483692467212677,-1.191733717918396,-1.2223975658416748,-1.1356158256530762,1.0109466314315796,-0.9781614542007446,1.163814902305603,1.2150846719741821,0.08279427886009216,0.8892174363136292,-0.9125818610191345,-1.0934525728225708,-0.9692909121513367,-0.9123908281326294,-0.9247180819511414,-0.6633343696594238,-0.5524471402168274,-1.0430279970169067,-1.0218969583511353,-1.1201070547103882,-0.14470839500427246,1.3522619009017944,0.055298104882240295,1.3363381624221802,0.1402808576822281,1.7654755115509033,0.092634417116642,1.0887808799743652,1.7245694398880005,1.1562024354934692,0.8062818646430969,1.3033154010772705,0.5879104137420654,-0.05841993913054466,0.7951975464820862,0.16573700308799744,1.1665016412734985,0.9796212315559387,-1.3613228797912598,1.2016056776046753,0.22122149169445038,0.2404942363500595,0.1685730665922165,2.349182605743408,1.7158693075180054,-0.15545527637004852,0.0071195317432284355,-0.21236638724803925,-1.440155029296875,-1.253607153892517,-0.8683805465698242,-0.8122588396072388,-0.7079504728317261,0.15638653934001923,-2.0986380577087402,-2.0065619945526123,0.16491085290908813,-0.3840916156768799,-0.2610952854156494,-0.6155710220336914,2.46482515335083,0.03760160133242607,0.481474369764328,0.19584082067012787,0.15077577531337738,0.07276816666126251,-0.8818984031677246,0.022218002006411552,0.40206339955329895,-0.2324448674917221,0.22276294231414795,0.4377533197402954,-0.06794789433479309,0.39818212389945984,0.074257493019104,-0.1311800181865692,0.4937301278114319,0.2089645266532898,0.3724563419818878,0.02089325524866581,-0.5834664106369019,0.029864490032196045,0.26097699999809265,0.07878302037715912,-0.44385579228401184,0.3865813612937927,0.33458763360977173,-0.6068447232246399,-1.0792903900146484,-0.5189923048019409,1.0332547426223755,0.6393527388572693,0.08864960819482803,-0.5914175510406494,0.24755966663360596,0.043905045837163925,0.2930296063423157,1.1313722133636475,-1.2434024810791016,-0.6961025595664978,-0.011239586398005486,-0.0028235327918082476,-0.010761762037873268,-0.3396986722946167,0.37562981247901917,1.0403534173965454,-1.386618971824646,-1.2815446853637695,1.0641380548477173,-0.8382375240325928,-0.16902054846286774],[1.5932139158248901,1.6681632995605469,1.3945558071136475,1.485800862312317,-0.0761059820652008,-0.19854126870632172,0.30844584107398987,0.5113856196403503,-1.2836313247680664,-1.2666643857955933,-0.009890692308545113,-0.7423846125602722,1.0440040826797485,0.937882125377655,0.26872164011001587,0.3195590078830719,-0.059384819120168686,-0.02429872192442417,-0.17524681985378265,-0.06426209956407547,-0.15365749597549438,-1.8194527626037598,-1.908227801322937,-0.007419856730848551,-0.1881922036409378,-0.18227942287921906,1.4456669092178345,0.3482339680194855,-0.42273077368736267,0.6420237421989441,1.4468110799789429,-0.8898944854736328,-0.3284287750720978,0.6426783800125122,1.1232140064239502,0.8047026991844177,1.1070935726165771,0.5807581543922424,0.4227619767189026,-0.1910858154296875,0.8196616172790527,0.02489430084824562,0.5092648267745972,-0.11966268718242645,-1.4452025890350342,1.6026815176010132,-0.681535542011261,-0.5594329237937927,-0.8014880418777466,1.9566057920455933,2.0402729511260986,0.06711883097887039,0.4056151807308197,-1.6366084814071655,-1.9316191673278809,-1.6238454580307007,0.8993690609931946,0.9464707374572754,0.9356244802474976,-0.2500898838043213,-0.48511800169944763,-0.5701385140419006,-0.2273380160331726,-0.20408575236797333,0.05464956909418106,-1.8913471698760986,1.3310343027114868,-0.5781999826431274,-0.16308969259262085,0.30926647782325745,-0.3565296530723572,-0.2976093292236328,-0.6992371082305908,-0.5136913657188416,-0.09709985554218292,-0.402364045381546,-0.020891323685646057,0.15788279473781586,-0.2990918755531311,-0.59010910987854,-0.24617783725261688,0.3437454402446747,0.25394392013549805,-0.37539711594581604,0.15955805778503418,-0.7499040365219116,-0.7476071715354919,-0.04981284216046333,-0.28284063935279846,0.16862069070339203,-0.0405852347612381,0.08428534865379333,0.16865025460720062,0.15519621968269348,0.3952749967575073,-0.4315626621246338,0.06368917226791382,0.3579760491847992,1.6091811656951904,-1.9646189212799072,1.4834052324295044,1.4386730194091797,-0.17462919652462006,1.637364387512207,-1.8396776914596558,0.8222154378890991,0.011910435743629932,0.5306456089019775,-0.5999582409858704,0.042150020599365234,-0.7209722995758057,-0.3728465139865875,-1.4488763809204102,-1.7082133293151855,0.024128511548042297,0.7222701907157898,-0.059387508779764175],[1.0103130340576172,1.0291916131973267,1.1446031332015991,1.059535026550293,0.39840948581695557,0.5560107827186584,1.3018970489501953,1.4081873893737793,0.6467136740684509,0.4898720979690552,-0.5954800248146057,0.8270784020423889,-0.7410907745361328,-0.680849015712738,0.11108961701393127,-0.5037947297096252,0.17871136963367462,-0.014131725765764713,0.2119390368461609,0.19969889521598816,0.06684262305498123,-1.8556358814239502,-1.7198164463043213,0.08158869296312332,0.14078694581985474,0.023728836327791214,0.7457162141799927,0.03235954791307449,-0.24066823720932007,0.011445566080510616,0.7973743677139282,-1.3735744953155518,-0.3001229763031006,0.09945699572563171,0.6887791156768799,-0.11527357995510101,0.6887624859809875,-0.5660935044288635,-0.09693567454814911,-0.43457338213920593,-0.7556827068328857,-0.42837008833885193,-0.618611216545105,-0.9175764322280884,-0.05929487571120262,0.2550988793373108,-0.014371085911989212,-0.017796801403164864,-0.046875495463609695,0.4036351442337036,0.4569489657878876,0.1836668848991394,0.8902252316474915,-1.67848801612854,-0.9182630181312561,-0.849587082862854,1.1984375715255737,1.1639758348464966,1.0781697034835815,-0.4385334849357605,0.7945743203163147,0.7756903171539307,-0.406830370426178,-0.1323809176683426,0.2641236186027527,-1.8061778545379639,-0.8368564248085022,-0.30981552600860596,-0.5024828314781189,-0.2524564862251282,-0.1421045958995819,0.41991400718688965,0.07193353772163391,-0.06063113361597061,-0.4664323031902313,-0.14506207406520844,0.005970873404294252,-0.1348799169063568,-0.011471918784081936,-0.6304259896278381,0.10201021283864975,0.2541336119174957,-0.25682559609413147,-0.3908647298812866,0.0955403670668602,-0.2065410166978836,0.25499361753463745,0.11003883183002472,-0.15375030040740967,0.11772749572992325,0.37111178040504456,-0.7992880940437317,-0.34848782420158386,1.0862706899642944,1.5117788314819336,-0.7770352363586426,-0.47967529296875,-0.08315625786781311,1.2102500200271606,-1.7122453451156616,1.1489392518997192,0.7229673862457275,0.04955195635557175,0.2983737885951996,-1.0518697500228882,1.1127748489379883,0.06832868605852127,0.01020075287669897,-0.034126754850149155,0.18883982300758362,-0.053702693432569504,-0.832503080368042,-0.2025640606880188,-1.0581889152526855,-1.3192799091339111,1.2060470581054688,-0.14718425273895264],[-0.9429869055747986,-1.0283769369125366,-1.0218431949615479,-0.8604915142059326,1.3388781547546387,1.401065468788147,0.3700185716152191,-1.094822883605957,0.11910019814968109,0.22032687067985535,0.6472066044807434,-1.2920883893966675,0.9563359618186951,0.883659839630127,0.059077922254800797,0.547988772392273,-2.011197090148926,-1.9019159078598022,-2.0629115104675293,-1.9630242586135864,-1.9321134090423584,0.9338032603263855,0.9407047033309937,-2.041537284851074,-1.8964259624481201,-1.9223328828811646,-0.01971098966896534,0.3170158863067627,0.47546979784965515,0.2276044338941574,-0.14393949508666992,-0.1477150022983551,-1.2665646076202393,2.4638776779174805,2.109645128250122,2.324434280395508,-1.3487375974655151,0.05064147338271141,0.005551713518798351,-0.3847639262676239,-0.6413028240203857,0.10736101865768433,0.6819660663604736,1.3674012422561646,0.9784156084060669,-0.9986944198608398,1.0795196294784546,1.3547645807266235,1.1745102405548096,0.39428460597991943,1.3032293319702148,0.09540946781635284,-0.8240653276443481,-0.8008115887641907,-1.4886548519134521,-1.0430011749267578,1.120235562324524,1.0269060134887695,1.183911919593811,-0.13589678704738617,-0.6091085076332092,-0.6141493320465088,-1.2806366682052612,0.09733989834785461,-0.08170993626117706,0.8717820048332214,2.1292734146118164,0.37457239627838135,0.5290799736976624,-0.18089161813259125,-0.05854511633515358,-0.47558701038360596,-0.35987287759780884,0.3225743770599365,0.4660923480987549,0.23866790533065796,-0.006474159192293882,0.6842190027236938,-0.4788670837879181,-0.3748474419116974,0.18576450645923615,-0.4646188020706177,0.04500791057944298,-0.39350029826164246,0.13933375477790833,0.5576223134994507,-0.5854116678237915,-0.002552356105297804,-0.0373128280043602,0.48654595017433167,-0.15830670297145844,0.3845226764678955,0.10932181775569916,0.2981778085231781,-1.1467993259429932,0.17964468896389008,0.6400332450866699,-0.0598721019923687,-0.9378501176834106,0.9040982723236084,-0.8262987732887268,-0.15090972185134888,0.09637606889009476,-0.8594785928726196,-1.0808770656585693,1.127402424812317,0.4566134810447693,0.283931702375412,0.0575566366314888,-0.5173746943473816,1.211092472076416,1.2437196969985962,1.1890954971313477,-0.9204514622688293,-0.8728816509246826,1.0974982976913452,-0.21770890057086945],[-0.3131793737411499,-0.09185963869094849,-0.1741187870502472,-0.24471063911914825,0.61748206615448,0.7512205839157104,-0.5095440149307251,-0.9097893238067627,-0.9019299149513245,-0.6796239614486694,0.2062385529279709,-1.087720513343811,1.0805277824401855,1.1108906269073486,0.019753165543079376,0.40265321731567383,-1.2209120988845825,-1.0809956789016724,-1.026820182800293,-1.1590962409973145,-1.2077139616012573,0.09738467633724213,0.052234698086977005,-1.0869300365447998,-1.1918219327926636,-1.2516913414001465,0.40892690420150757,-0.02378643862903118,0.29776138067245483,0.05961323902010918,0.504553496837616,0.030376296490430832,-0.9627136588096619,1.7379481792449951,1.4076476097106934,1.7612287998199463,-0.22041232883930206,0.36889535188674927,0.07166355848312378,-0.014538618735969067,0.6644799113273621,0.35939517617225647,0.4793056845664978,0.7860565185546875,0.24640461802482605,-0.11930352449417114,0.2460262030363083,0.3121721148490906,0.374301016330719,0.399307519197464,1.281934380531311,-0.18874171376228333,-0.48244795203208923,-0.7029563188552856,-1.1258187294006348,-0.9486226439476013,0.3940538763999939,0.4913875162601471,0.1863100826740265,-0.20727406442165375,-0.5959303379058838,-0.4817122519016266,-1.0095821619033813,0.0015654993476346135,0.0418042354285717,0.09693586826324463,1.726325273513794,0.12332340329885483,0.2274937778711319,0.04842793941497803,-0.21775256097316742,-0.16072067618370056,-0.23182113468647003,0.28195035457611084,0.3069104254245758,-0.09957462549209595,-0.08009811490774155,0.3864457607269287,-0.36203470826148987,-0.016192734241485596,0.1328141987323761,-0.14888544380664825,0.1562432199716568,-0.08080701529979706,0.08683101832866669,0.12773270905017853,-0.38725194334983826,-0.09169948846101761,-0.033115923404693604,0.09654046595096588,-0.013960329815745354,0.4126614034175873,0.4422282874584198,-0.38851600885391235,-0.8340609073638916,0.30224236845970154,0.5407909750938416,0.13803347945213318,-0.1428801417350769,0.16398505866527557,-0.26870080828666687,0.49521443247795105,0.04028670862317085,0.10888355225324631,-0.8863545060157776,0.3764379322528839,0.21078242361545563,0.638512909412384,0.14147114753723145,-0.017596188932657242,0.16769801080226898,0.8325875997543335,0.2368965446949005,-0.8142549991607666,0.2812820076942444,0.457216739654541,-0.0253799669444561],[0.014108511619269848,0.07650195807218552,0.17192769050598145,0.34160950779914856,-0.5069315433502197,-0.5475292801856995,-0.2892516255378723,-0.6797845959663391,-0.8106051683425903,-1.0593922138214111,0.509892463684082,-0.26635676622390747,0.4560821056365967,0.38064369559288025,0.03891595080494881,0.33508574962615967,0.048385169357061386,0.0782466009259224,-0.2934817373752594,-0.04107861593365669,-0.13433589041233063,-0.25772085785865784,-0.3517841398715973,-0.12484174221754074,-0.2332746386528015,-0.3561548590660095,0.1388682723045349,0.7142982482910156,0.1927427351474762,0.5035528540611267,-0.03164202347397804,0.773525595664978,0.36853140592575073,-0.22584769129753113,0.24390026926994324,-0.4222586452960968,0.554099977016449,1.1276354789733887,0.41799962520599365,-0.06693441420793533,0.7130871415138245,0.23111946880817413,0.7120620012283325,0.09341845661401749,-1.0122917890548706,0.5380704402923584,-0.22350876033306122,-0.49507296085357666,-0.4176713824272156,1.4489319324493408,1.3332656621932983,-0.0516781210899353,0.3659263551235199,0.2192927747964859,-0.8388892412185669,-0.804026186466217,-0.6082432866096497,-0.7398552298545837,-0.7561504244804382,0.19831497967243195,-1.1164555549621582,-1.1926031112670898,0.21828290820121765,-0.06645650416612625,0.05380183458328247,-0.15098008513450623,1.4456676244735718,-0.07325270026922226,0.40679389238357544,0.21582840383052826,0.06676731258630753,-0.05395299941301346,-0.4449167847633362,0.09644400328397751,0.2816862463951111,-0.1595182567834854,0.21052375435829163,0.11029981821775436,0.1695174127817154,0.19934599101543427,0.21159029006958008,0.3365658223628998,0.11162406951189041,-0.21003229916095734,0.20883215963840485,0.21894322335720062,-0.2483827918767929,-0.023865461349487305,-0.009617522358894348,-0.05950256064534187,0.011369585990905762,0.3639127016067505,0.4219830334186554,-0.3836835026741028,-0.8737053871154785,-0.09853825718164444,0.45695388317108154,0.16142836213111877,0.15671399235725403,-0.2806558310985565,0.035225048661231995,-0.27867943048477173,0.30264145135879517,0.6075756549835205,-0.8800100088119507,-0.5839274525642395,-0.13450869917869568,0.26897722482681274,-0.05850609764456749,0.089338019490242,-0.369637668132782,0.40909188985824585,-0.8720598220825195,-0.8664945960044861,0.47236019372940063,-0.5924558639526367,0.14417637884616852],[1.5854668617248535,1.426472544670105,1.5518449544906616,1.4646245241165161,-0.10770296305418015,-0.12235581874847412,1.388715386390686,1.9605798721313477,0.13759444653987885,0.23058776557445526,-0.1154978945851326,0.8540648221969604,0.4231609106063843,0.4240744411945343,-0.23037461936473846,-0.4378867447376251,0.8423722982406616,0.5940213203430176,0.6811516880989075,0.6098561882972717,0.6983727812767029,-2.3132829666137695,-2.286719799041748,0.6593058109283447,0.6842727661132812,0.6958616971969604,1.074619174003601,0.9333760738372803,-0.38620004057884216,1.0049803256988525,1.1258474588394165,-1.3151713609695435,0.5085769891738892,-1.4554073810577393,-0.3656613826751709,-1.293662667274475,1.3500149250030518,-0.21120527386665344,-0.19857928156852722,-0.5549178719520569,-0.6562235951423645,-0.4485147297382355,-0.263569176197052,-1.247078776359558,-1.4810364246368408,1.6948535442352295,-0.3106124699115753,-0.09704026579856873,-0.16344279050827026,1.317210078239441,0.8550069332122803,0.21194040775299072,1.0440937280654907,-1.3951977491378784,-1.5517942905426025,-1.330488920211792,0.4234822690486908,0.39984431862831116,0.2482139617204666,-0.26425984501838684,0.2576574683189392,0.24432221055030823,0.6580100059509277,-0.33084431290626526,0.19959065318107605,-2.34041428565979,-1.6125733852386475,-0.4672132432460785,-0.2616623640060425,-0.21925088763237,-0.11106740683317184,0.602800190448761,-0.13892269134521484,-0.11358661204576492,-0.23758374154567719,-0.2033478021621704,-0.014640787616372108,-0.24509184062480927,0.20522041618824005,-0.6882615685462952,-0.1639772355556488,0.23423469066619873,0.10424593836069107,-0.4786699712276459,-0.13324235379695892,-1.0736416578292847,0.033548031002283096,-0.3567669093608856,-0.24890154600143433,-0.042033154517412186,0.2600703537464142,-0.8098843693733215,-0.3529313802719116,1.560295820236206,1.8079966306686401,-1.2146058082580566,-0.5656649470329285,-0.190872460603714,1.5282574892044067,-2.264014720916748,1.4805638790130615,1.138089895248413,-0.1077290028333664,1.7455931901931763,-1.392141580581665,0.39921537041664124,0.11774203181266785,-0.4399256110191345,-0.42952966690063477,-0.02048344723880291,-0.08836057037115097,-1.195629358291626,-1.3747860193252563,-1.3122297525405884,-0.9384010434150696,0.38727834820747375,0.15105263888835907],[-1.4116599559783936,-1.3101407289505005,-1.4217921495437622,-1.2900261878967285,-0.43914294242858887,-0.4431227743625641,0.08503305166959763,-0.04840628430247307,1.2407208681106567,1.3524234294891357,-0.0003669751458801329,1.3923239707946777,-1.332317590713501,-1.2952529191970825,0.1834295094013214,-0.5680055022239685,0.43556761741638184,0.5544129014015198,0.347099244594574,0.4453970193862915,0.4242934286594391,1.0273118019104004,1.1293296813964844,0.40495797991752625,0.31481754779815674,0.381228506565094,-1.687225580215454,0.22755341231822968,0.4014362692832947,0.2551957964897156,-1.6842933893203735,1.2603341341018677,1.3171452283859253,-1.6535097360610962,-0.5348803997039795,-1.5427716970443726,-0.2191217988729477,-0.47977232933044434,-0.19740845263004303,0.12492921948432922,-1.0538921356201172,0.12849856913089752,-0.05306408554315567,-0.3443200886249542,0.43792104721069336,0.12255825102329254,0.6980711221694946,0.7904759645462036,0.748322069644928,-1.7951972484588623,-2.2296676635742188,0.4037743806838989,0.7941799163818359,1.026957392692566,1.5911349058151245,1.3604958057403564,-1.5854198932647705,-1.5092155933380127,-1.5677580833435059,0.36257439851760864,-0.09452126175165176,0.06325548142194748,1.2429025173187256,0.4372042119503021,0.27484816312789917,1.0336767435073853,-1.94050931930542,0.3503764867782593,0.570193886756897,-0.2601335346698761,0.618618905544281,0.4713182747364044,0.5718456506729126,0.09212247282266617,0.15684181451797485,0.3269583582878113,0.35589584708213806,-0.301367849111557,0.5439972877502441,0.5381155014038086,0.05399187281727791,-0.14400026202201843,0.17808978259563446,0.7347968220710754,0.0035926741547882557,0.5914742946624756,0.7285007834434509,0.1514926254749298,0.7299900054931641,-0.05660250410437584,-0.18142865598201752,-0.08081214129924774,0.021988464519381523,0.007739229127764702,-0.001590339932590723,-0.2944755256175995,0.2384731024503708,0.08606288582086563,-1.4745827913284302,1.1536588668823242,-1.3640482425689697,-1.7333892583847046,0.2039506882429123,0.10432852804660797,1.5391494035720825,-1.5022308826446533,0.34039393067359924,-0.8925237655639648,0.7028393745422363,0.16411343216896057,0.5584484338760376,-0.337852418422699,0.5052228569984436,1.519330382347107,0.4336528480052948,-1.5876764059066772,0.10496561974287033],[0.3347543478012085,0.40304800868034363,0.41598647832870483,0.5184156894683838,0.9322041273117065,0.7549405694007874,-0.5003117918968201,0.8299026489257812,-0.5605396628379822,-0.5448536276817322,-0.5137467980384827,-0.45042818784713745,0.5332539081573486,0.5700457096099854,0.07901841402053833,0.14570677280426025,0.5779654383659363,0.6799191236495972,0.375826358795166,0.6858497262001038,0.48788130283355713,-0.37930259108543396,-0.5090835690498352,0.408124715089798,0.5502520203590393,0.4214605987071991,1.6043092012405396,-1.6259385347366333,-0.07874064147472382,-1.6445555686950684,1.56034517288208,-2.0480146408081055,-1.3917841911315918,-0.21593795716762543,-1.4876681566238403,-0.1622452437877655,0.9100448489189148,-0.1605682224035263,-0.013360531069338322,0.2897929251194,1.4442566633224487,0.2277892529964447,-0.4383585751056671,-0.193836972117424,1.3773235082626343,-1.0262715816497803,-1.4671882390975952,-1.483832597732544,-1.3778693675994873,-1.3233498334884644,-0.026725389063358307,-0.29770904779434204,-0.5137696862220764,0.07370568811893463,-0.9195847511291504,-0.476034551858902,0.7371127009391785,0.8323429822921753,0.9370664358139038,0.09292778372764587,2.0305771827697754,2.0207886695861816,-1.3321255445480347,-0.179428368806839,-0.2082245647907257,-0.3752799332141876,-1.7424803972244263,-0.32923588156700134,-0.4002510905265808,0.2084895521402359,-0.5122749209403992,0.5829492807388306,0.3604053854942322,0.413107305765152,-0.3793524503707886,-0.01481722667813301,-0.5126108527183533,-0.10479523986577988,-0.5109231472015381,-0.524565577507019,-0.21537905931472778,0.3056172728538513,-0.17265726625919342,-0.29001832008361816,-0.3420116901397705,-0.0563492551445961,0.42698898911476135,0.1392139047384262,-0.522411048412323,-0.20680361986160278,0.2856145203113556,0.23993730545043945,0.021718520671129227,-0.4148014783859253,1.0070372819900513,1.4697538614273071,-0.8174545764923096,-0.11544739454984665,0.2326594442129135,-0.4172840714454651,0.4947284758090973,1.567318320274353,-0.40850329399108887,-1.0905139446258545,-0.3718281388282776,0.9767888188362122,-0.1360563486814499,1.6265519857406616,-0.15682955086231232,0.9297946095466614,-1.4505130052566528,0.010311812162399292,1.4235303401947021,-0.33149001002311707,-0.08917810767889023,0.8880729675292969,0.12102081626653671],[-0.2803869843482971,-0.3083137571811676,-0.18951719999313354,-0.11946963518857956,1.0508285760879517,1.1171720027923584,0.2371988147497177,-0.08415550738573074,0.57132887840271,0.4230392873287201,0.25020861625671387,-0.15645930171012878,-0.22916163504123688,-0.0590062215924263,-0.10080044716596603,-0.08735160529613495,-0.9996988773345947,-1.088550329208374,-1.0493460893630981,-1.0907642841339111,-1.1420838832855225,0.051845185458660126,0.014704878441989422,-1.0916534662246704,-0.9706836342811584,-0.94051593542099,-0.021574759855866432,-0.42935803532600403,0.08909638971090317,-0.5561659932136536,0.1907721906900406,-0.7884549498558044,-1.0518503189086914,1.3801565170288086,1.3617085218429565,1.4126781225204468,-0.4628746807575226,-0.6088702082633972,0.007068502251058817,-0.0967128574848175,-0.4411218464374542,0.17913199961185455,-0.08935806155204773,0.5979004502296448,1.015369176864624,-0.9330577850341797,0.5093196034431458,0.21918050944805145,0.16359372437000275,-0.4426867365837097,0.047190919518470764,-0.20223765075206757,-0.11082541942596436,-0.6025094985961914,-0.6278396248817444,-0.5106279850006104,0.9616974592208862,0.8779333233833313,0.7468604445457458,-0.20781947672367096,0.5101811289787292,0.691068708896637,-1.090808391571045,0.02600262314081192,0.03284299746155739,0.27377554774284363,0.05520851910114288,0.34494560956954956,-0.25123080611228943,-0.0022298917174339294,-0.18176376819610596,0.10301557928323746,0.054124101996421814,0.5279980301856995,-0.08131372183561325,0.18744570016860962,-0.06564538925886154,-0.042290836572647095,-0.180930033326149,-0.03423244506120682,-0.04438961669802666,-0.1479809284210205,-0.2675400674343109,0.0018025345634669065,0.012829427607357502,0.4207751154899597,0.20474134385585785,0.01901295967400074,0.010522283613681793,0.19311773777008057,0.22626778483390808,-0.2615292966365814,0.05702197179198265,0.12267511337995529,-0.1818806529045105,0.31404247879981995,-0.10515434294939041,0.11855180561542511,-0.37338483333587646,0.14733169972896576,-0.07442498952150345,0.3595910966396332,-0.14388693869113922,-1.0076348781585693,-0.5936480164527893,0.8867892026901245,0.018707895651459694,0.8184833526611328,0.007439017295837402,0.017821915447711945,0.5004658699035645,0.6761496067047119,1.2698087692260742,-0.6059144139289856,-0.5911592245101929,0.9278833270072937,-0.14431129395961761]],"biases":[0.05187121406197548,0.020422132685780525,0.038965463638305664,0.02390139549970627,-0.15741068124771118,0.07215657085180283,0.07963758707046509,-0.05226925015449524,-0.04172010347247124,-0.01273802388459444,0.052348773926496506,-0.11381060630083084,0.08000101894140244,-0.11298783868551254,-0.23290804028511047,-0.10973331332206726,0.02798273041844368,0.08980303257703781,-0.10395456105470657,-0.17173199355602264]},{"weights":[[0.16248869895935059,0.2823975384235382,-0.1820778250694275,-1.5530296564102173,0.057130079716444016,0.01648147776722908,0.3385620415210724,0.4402625560760498,1.6100014448165894,-0.8557080626487732,-2.3140475749969482,-0.9476478695869446,1.009307622909546,-0.5529710650444031,-1.1261833906173706,-1.4494547843933105,0.6638346910476685,0.6416130065917969,0.7152634263038635,0.4535340666770935],[-2.430072069168091,-0.14918974041938782,1.9034711122512817,3.0613040924072266,-2.140256404876709,-1.5908949375152588,-2.751152992248535,1.8232529163360596,-2.965073347091675,1.3285248279571533,2.4945805072784424,3.244523286819458,0.23386338353157043,-2.807924509048462,-0.3928086459636688,2.343055009841919,2.5261926651000977,-1.5044745206832886,-0.9152454733848572,-2.6361794471740723],[-1.9683607816696167,0.7706708908081055,-2.0919620990753174,-1.3977243900299072,2.1067616939544678,0.544629693031311,0.2546501159667969,-2.7373533248901367,0.49132227897644043,-2.4553682804107666,-0.1894814670085907,1.3712717294692993,-0.6678081750869751,3.2652618885040283,2.9009830951690674,-0.07868104428052902,-2.781233787536621,-4.005901336669922,4.002974510192871,2.138657331466675],[-0.07488120347261429,-2.804532527923584,1.7105456590652466,1.651216745376587,-1.3419839143753052,-4.4146552085876465,-0.5474544167518616,3.54201602935791,-2.934978485107422,2.5463521480560303,3.0360107421875,2.302454948425293,0.5990120768547058,-1.9716676473617554,-0.7570274472236633,2.414088487625122,2.393758773803711,0.4412555396556854,-4.046379566192627,-1.7561895847320557],[-0.05431119352579117,0.5446091294288635,0.2776932120323181,-0.21906764805316925,0.1875782459974289,0.322033166885376,0.03710523992776871,0.6152498126029968,0.7649278044700623,-0.4441552758216858,-0.5737082958221436,0.20439307391643524,0.7386399507522583,-0.19890543818473816,-0.36097294092178345,-0.2117927521467209,0.3230702579021454,0.27495530247688293,0.661087155342102,0.48353925347328186],[0.3159315288066864,0.5289314985275269,0.4694104790687561,0.375628799200058,0.17163048684597015,0.5787827372550964,0.5225074291229248,0.5502461791038513,0.6257038712501526,-0.03158654272556305,0.23304159939289093,0.11036677658557892,0.4000502824783325,0.21987031400203705,0.1782516986131668,0.24211113154888153,0.21500176191329956,0.6376591324806213,0.5045284032821655,0.37448811531066895],[4.6150736808776855,-3.213390350341797,-3.9297714233398438,-1.0868593454360962,2.3317983150482178,-0.5719773769378662,3.033642530441284,-2.8171348571777344,-0.38658973574638367,2.359874963760376,2.007331609725952,-1.1981168985366821,-1.1342644691467285,6.909644603729248,2.58927321434021,0.26925650238990784,-3.168281078338623,-1.1492356061935425,-2.7271347045898438,2.513228416442871],[-1.5019522905349731,-4.119134902954102,-3.074007034301758,-1.4060895442962646,1.0025718212127686,-6.30517578125,-3.045313596725464,-0.4380130171775818,-0.23092159628868103,1.1167716979980469,1.0683950185775757,4.71286153793335,3.349569320678711,1.7507622241973877,1.416198492050171,0.15843865275382996,1.6423484086990356,-5.731655120849609,0.7211201190948486,1.5292890071868896],[0.10638580471277237,0.023039214313030243,0.21519878506660461,2.365017890930176,-0.3355037271976471,0.34994474053382874,0.5529898405075073,-1.4732308387756348,-2.4576900005340576,1.4388713836669922,3.213324546813965,0.7601098418235779,-2.8011679649353027,1.094191551208496,1.294570803642273,1.2941330671310425,-1.1367403268814087,-0.8178420066833496,-2.548088550567627,-1.2920846939086914],[-1.4377304315567017,3.0195350646972656,2.3480124473571777,-1.466868281364441,-1.5836535692214966,2.517378091812134,1.6403988599777222,0.4504171311855316,0.22298042476177216,-4.291334629058838,-4.284661293029785,-2.9121997356414795,-1.2961505651474,-1.784612774848938,-1.8653916120529175,-1.2201310396194458,-2.1717066764831543,1.910684585571289,2.5055365562438965,-0.49106428027153015],[-0.004364211577922106,0.6852946281433105,0.6842548847198486,0.16216778755187988,0.03908630460500717,0.7754157185554504,0.4655040204524994,0.5296224355697632,0.46535441279411316,-0.19505129754543304,0.003129255957901478,0.09721310436725616,0.07781340926885605,-0.21570006012916565,-0.034098658710718155,-0.28055983781814575,0.1224195659160614,0.6494497656822205,0.6383922100067139,0.3854801654815674],[1.9388681650161743,-3.5385966300964355,-3.9819862842559814,-0.28761184215545654,1.9730912446975708,-3.756796360015869,-2.9124021530151367,-2.5072619915008545,-0.2280966341495514,3.4767539501190186,2.0206305980682373,3.2006752490997314,1.6859492063522339,3.0439627170562744,2.055044174194336,-0.09454619139432907,2.37662672996521,-3.94028639793396,-1.034957766532898,0.9226726293563843],[0.302729994058609,0.40927988290786743,0.6910095810890198,-0.09432948380708694,0.35727331042289734,0.3462909162044525,0.24329105019569397,0.8530312180519104,0.45629724860191345,0.2236533761024475,-0.11831013113260269,-0.18132787942886353,0.5700637698173523,-0.40731218457221985,0.0018491944065317512,0.13849642872810364,0.44913002848625183,0.7562205195426941,0.28896820545196533,0.3916698098182678],[0.41140469908714294,0.04066655412316322,0.8396861553192139,2.8520572185516357,-1.080748200416565,0.5197458267211914,1.5489760637283325,-0.5173630714416504,-2.6907708644866943,1.1349858045578003,2.9496028423309326,0.2547746002674103,-2.9055182933807373,0.8283082842826843,0.7441632747650146,1.236892819404602,-2.217634677886963,0.9767961502075195,-3.6481776237487793,-1.2612282037734985],[0.7765691876411438,-1.4007318019866943,-2.3630456924438477,-1.9658342599868774,1.4203647375106812,-2.2601194381713867,-1.851930022239685,-1.1182957887649536,2.4632253646850586,1.1160508394241333,-1.9523953199386597,0.9628182053565979,3.393303155899048,0.2361276000738144,-0.28731903433799744,-1.7982875108718872,3.160701036453247,-0.030354466289281845,0.8554286956787109,1.3099981546401978],[0.08007920533418655,0.69635409116745,0.5848780870437622,0.3587362766265869,0.22775141894817352,1.0165867805480957,0.3659592568874359,0.4814082384109497,0.45105379819869995,-0.18701542913913727,-0.19067026674747467,0.26036548614501953,0.010573489591479301,-0.026006892323493958,0.37844499945640564,0.021819932386279106,-0.12193569540977478,0.14266115427017212,0.6812258958816528,0.13898234069347382],[2.6850192546844482,-1.4558722972869873,-0.9426316618919373,-0.7529082298278809,1.2707138061523438,1.6527340412139893,4.841470718383789,0.22045065462589264,-0.5262391567230225,-0.2627471089363098,0.7238683700561523,-3.8738133907318115,-2.9581565856933594,3.531282901763916,1.6107956171035767,-0.6486913561820984,-6.556138515472412,2.0873935222625732,-3.037618398666382,1.379891276359558],[-0.9481932520866394,2.2354352474212646,3.244858741760254,0.8399888277053833,-2.1586430072784424,1.9657398462295532,2.2004711627960205,2.3438491821289062,-0.9294793605804443,-2.4238204956054688,-1.774244785308838,-2.641218423843384,-1.6568100452423096,-2.744701385498047,-1.3835245370864868,-0.39346569776535034,-1.8167085647583008,2.7272284030914307,-0.26591336727142334,-1.1209608316421509],[-4.07278299331665,1.670493483543396,-0.532576858997345,0.9959689378738403,-0.34019193053245544,-1.1625443696975708,-4.819956302642822,-1.4930357933044434,0.46572718024253845,-0.4345812201499939,-0.3977731168270111,4.054266452789307,2.0107011795043945,-2.6336569786071777,-0.012041633017361164,0.3055034875869751,3.4799673557281494,-3.5913732051849365,3.3242549896240234,-0.8276395201683044],[3.238743305206299,-2.3725783824920654,0.9351142048835754,-2.1193857192993164,-0.41145938634872437,-2.3035314083099365,1.1469485759735107,2.442298173904419,0.7137004733085632,1.0833534002304077,-3.495234727859497,-1.1017470359802246,2.1872198581695557,-1.5502738952636719,-2.3632774353027344,-1.9253464937210083,2.273988723754883,2.4496116638183594,-1.7883867025375366,-0.6598931550979614]],"biases":[0.424953430891037,-0.7675134539604187,-0.4424000382423401,-0.842232882976532,0.3812417984008789,0.876411497592926,-1.9199339151382446,-1.2665537595748901,-0.8865269422531128,0.552457332611084,0.34879475831985474,-1.4193017482757568,0.7315341830253601,-1.043411374092102,0.006740381941199303,0.34010136127471924,-1.8411697149276733,0.04621385037899017,-0.09844411909580231,1.024528980255127]},{"weights":[[-1.5124975442886353,2.294041633605957,-2.1670761108398438,3.070221185684204,-1.4880321025848389,-2.070725679397583,-5.362860679626465,4.77286958694458,-2.128849506378174,-1.5118521451950073,-1.8678340911865234,2.0340681076049805,-1.3235499858856201,-3.1713271141052246,1.0082019567489624,-2.242410659790039,-4.396504878997803,-1.468730092048645,1.541991114616394,0.0948249027132988],[-0.23238453269004822,-2.4110591411590576,2.3352770805358887,-2.1387152671813965,-0.3909069001674652,-0.7608398795127869,1.6166889667510986,-4.854902744293213,-2.07942533493042,-3.2746634483337402,-0.6153703331947327,2.436668634414673,-0.5324074029922485,-2.373626232147217,1.665190577507019,-0.5087648034095764,-1.4312047958374023,-2.113616943359375,-3.415473461151123,-1.780752420425415],[0.13448621332645416,-1.391564965248108,-2.5442416667938232,1.2840062379837036,-0.797063946723938,-1.0779876708984375,1.616660237312317,-1.4433163404464722,-2.1111841201782227,-1.7441908121109009,-1.188774585723877,3.0263497829437256,-0.9290927052497864,-2.7518985271453857,1.784330129623413,-1.1074007749557495,-3.8449885845184326,-2.026665210723877,-2.8945257663726807,2.188514471054077],[0.5564913749694824,-1.3311043977737427,-3.4519612789154053,-2.3728184700012207,-0.5055498480796814,-0.649656355381012,-3.346630573272705,-2.669914960861206,-1.9794270992279053,-2.462470293045044,-0.5336430072784424,-0.7394220232963562,-0.2647745907306671,-2.585773229598999,2.513932943344116,-0.6556928157806396,-3.0845868587493896,-3.0729494094848633,2.179879665374756,2.572316884994507],[0.9956257939338684,-3.4874439239501953,-3.108630895614624,-2.7997636795043945,-0.5521459579467773,-0.6602375507354736,2.1527860164642334,-1.4656484127044678,-1.9164810180664062,-1.9570584297180176,-0.6594745516777039,-3.2612674236297607,-0.7532115578651428,-2.385782241821289,1.6508444547653198,-0.8963524699211121,0.37583979964256287,-1.4353097677230835,-2.5441460609436035,2.9855551719665527],[-0.7161964774131775,-0.4457576870918274,-0.7939507365226746,0.6953464150428772,-0.6126630902290344,-0.5833631753921509,1.0311881303787231,-0.8899019956588745,0.3386837840080261,-1.104090690612793,-0.47300440073013306,-0.339987576007843,-0.6297425031661987,0.4836195111274719,-0.7722263932228088,-0.5442885756492615,-0.3711426854133606,-0.9787449240684509,-0.8285829424858093,-1.2401697635650635],[0.7121756076812744,-1.4378434419631958,-1.5323337316513062,1.5157970190048218,-0.31939107179641724,-0.5750837326049805,-2.4901809692382812,-0.7646726965904236,-1.7877222299575806,-1.1907329559326172,-0.8038082122802734,-1.5510683059692383,-0.5194141864776611,-1.8768339157104492,0.9106408357620239,-0.5225741863250732,-1.6820271015167236,0.645115077495575,-2.456655740737915,1.8880376815795898],[-1.8508753776550293,-0.2752787470817566,1.666218638420105,-2.432966947555542,-1.3447843790054321,-0.961533784866333,2.102489709854126,-4.955954074859619,2.017280101776123,-1.659837245941162,-1.1106003522872925,3.067868947982788,-1.362226963043213,0.3632969260215759,-0.7498639225959778,-0.9651142954826355,-3.8235580921173096,-1.4904344081878662,1.6507654190063477,-3.2521159648895264],[-0.5604667663574219,-0.5051478743553162,-0.5954511165618896,-0.3624941110610962,-0.3474521338939667,-0.36342522501945496,-0.4106982946395874,-0.4449845254421234,-0.39851370453834534,-0.6146955490112305,-0.2456769198179245,-0.6824295520782471,-0.4543742835521698,-0.37751662731170654,-0.2883298695087433,-0.16722767055034637,-0.672050952911377,-0.7180846333503723,-0.6355944871902466,-0.625606894493103],[-0.8806853890419006,-0.07421068847179413,-0.00292760506272316,-0.25489121675491333,-0.6332048773765564,-0.42177391052246094,0.7341203093528748,-0.8288277983665466,0.27159181237220764,-0.9071635603904724,-0.3595842719078064,-0.17034368216991425,-0.31440576910972595,0.15315747261047363,-1.0696680545806885,-0.3707747757434845,-0.7406027913093567,-1.094976782798767,-0.7541926503181458,-1.3181923627853394],[-0.30019742250442505,2.50130295753479,-3.388199806213379,-0.20161455869674683,-0.4669739305973053,-1.0607175827026367,-6.839484214782715,-2.4562766551971436,-2.5949528217315674,3.2622880935668945,-0.9256086945533752,-5.0507073402404785,-0.7950059175491333,-2.7382469177246094,-1.83773672580719,-1.3259822130203247,-5.297623157501221,2.3567326068878174,2.426825523376465,0.326572060585022],[-1.0144723653793335,-3.232550859451294,0.18950816988945007,-3.1033754348754883,-2.1464600563049316,-1.7358587980270386,5.178463459014893,-4.348613262176514,0.24267753958702087,3.19655442237854,-1.7383663654327393,-5.374605178833008,-2.0230000019073486,1.1977901458740234,-4.698437690734863,-1.5791505575180054,2.5861878395080566,2.3012185096740723,-3.2927584648132324,-1.3100497722625732],[-0.48448628187179565,-0.5324821472167969,1.9175829887390137,-4.537877082824707,-0.9396967887878418,-1.095674753189087,-5.459923267364502,-0.5607816576957703,-1.0910776853561401,-1.5683294534683228,-0.6502609252929688,3.1508634090423584,-1.1397693157196045,-1.5579549074172974,0.39327630400657654,-0.5902361869812012,-3.7798285484313965,-1.969757318496704,4.348255634307861,-3.261650562286377],[-1.5192385911941528,2.2260921001434326,-2.2007462978363037,2.710031270980835,-1.6013667583465576,-1.4477497339248657,2.35296630859375,-3.39043927192688,0.9692844748497009,-1.495094895362854,-1.4033714532852173,2.5037825107574463,-1.4987633228302002,0.690568745136261,-0.41075754165649414,-1.7826879024505615,-3.002513885498047,-2.056561231613159,-4.122433662414551,1.0351059436798096],[-0.40701940655708313,-0.7934025526046753,-0.6941977143287659,-0.4937267303466797,-0.5380274653434753,-0.5063682794570923,0.6186080574989319,-0.42967861890792847,-0.17142567038536072,-0.6826800107955933,-0.5896648168563843,-0.8360506892204285,-0.2397354543209076,-0.24336859583854675,-0.44920995831489563,-0.4352461099624634,0.1869274079799652,-0.7708556056022644,-0.7383445501327515,-0.5158523321151733],[-1.3725144863128662,0.42604562640190125,-3.6909003257751465,1.826999306678772,-1.887274146080017,-1.5324517488479614,1.3773517608642578,-1.2534804344177246,1.8135771751403809,-2.5137875080108643,-1.2338358163833618,-2.8282461166381836,-1.3972811698913574,1.8142600059509277,-2.882044553756714,-1.255895972251892,3.1047184467315674,1.0523492097854614,-1.6288505792617798,-1.3082457780838013],[-0.5588381886482239,1.6824688911437988,-2.079134941101074,2.986114978790283,-1.119120717048645,-1.0325212478637695,-3.888796329498291,-1.3351253271102905,0.5884518623352051,-2.0554986000061035,-0.9820858836174011,-3.1799800395965576,-0.9278589487075806,1.4985778331756592,-1.8596538305282593,-1.181215524673462,-3.034008026123047,0.9293697476387024,-2.864424705505371,1.9879573583602905],[-1.6905254125595093,-1.8086031675338745,1.349137544631958,-1.6240291595458984,-1.9032267332077026,-1.8860763311386108,2.469883680343628,3.6806397438049316,0.8546544909477234,-3.366121768951416,-1.8195918798446655,2.5350754261016846,-2.0018534660339355,-0.14723989367485046,0.18647484481334686,-1.7570997476577759,2.6952197551727295,-2.4674291610717773,-2.494408369064331,-2.1234798431396484],[-1.0630875825881958,1.4834723472595215,-2.3685357570648193,1.804345965385437,-1.1347882747650146,-1.0156387090682983,-3.5562620162963867,-5.145191669464111,1.1312131881713867,-3.1678829193115234,-0.7934795022010803,1.0598762035369873,-0.9566344618797302,1.2400909662246704,0.3973327875137329,-0.9302113056182861,-2.904895305633545,-2.1960084438323975,3.1747725009918213,-1.2997013330459595],[-1.0868977308273315,1.565287470817566,-0.4919610023498535,1.4802807569503784,-0.7200562953948975,-0.6473731398582458,-0.599213182926178,-1.258299469947815,0.8367343544960022,-1.039610505104065,-0.4667816162109375,-0.9242488741874695,-0.44015663862228394,0.5436626076698303,-1.6201845407485962,-0.40667808055877686,-1.7196694612503052,-1.373561143875122,-0.9621951580047607,-1.9086278676986694],[-0.6985624432563782,0.08790025860071182,-0.5147731304168701,-0.24902139604091644,-0.19698719680309296,-0.19494181871414185,-0.37705862522125244,-0.4426857531070709,-0.13403113186359406,-0.7492259740829468,-0.34797540307044983,-0.6538516283035278,-0.22167374193668365,0.11468373984098434,-0.9328035712242126,-0.26806697249412537,-0.8374127149581909,-0.987486720085144,-0.539128839969635,-1.0520250797271729],[-0.3963402509689331,-0.5300813317298889,-0.1627567857503891,-1.014582872390747,-0.13572943210601807,-0.039686549454927444,-1.2492753267288208,-0.41787028312683105,-0.4077911376953125,-0.6335113644599915,-0.10241673141717911,-0.8124356865882874,-0.07781560719013214,-0.30941709876060486,-0.926223635673523,-0.2608919143676758,-0.9270989894866943,0.3131418824195862,-0.8454883694648743,-1.0176520347595215],[-1.5243083238601685,1.531493067741394,1.8980293273925781,-1.5132218599319458,-0.44819754362106323,-0.5771444439888,-2.376533269882202,-1.1086041927337646,0.8234135508537292,-0.9454568028450012,-0.3666025698184967,-2.1405744552612305,-0.40303486585617065,0.03041565977036953,-2.4754886627197266,-0.6187562942504883,-1.3824797868728638,-0.4815172553062439,1.867492437362671,-2.3429112434387207],[-0.39880552887916565,-0.7278717756271362,0.10099507868289948,-0.42888742685317993,-0.584326982498169,-0.47760292887687683,-0.13348470628261566,-0.43649306893348694,-0.3131824731826782,-0.7632533311843872,-0.18272989988327026,-0.8490272760391235,-0.28328388929367065,-0.16875851154327393,-0.8042152523994446,-0.219309002161026,-0.25759488344192505,-0.5624568462371826,-0.7005354166030884,-0.865374743938446],[-1.0548933744430542,0.1768573671579361,-0.5294697284698486,0.37163129448890686,-0.742924153804779,-0.6250186562538147,0.8530295491218567,-1.0972914695739746,0.6372113823890686,-0.7926936745643616,-0.46192625164985657,-0.07666099071502686,-0.6460736393928528,0.7690457701683044,-0.9942489266395569,-0.3724992573261261,-1.040626883506775,-1.38157320022583,-1.0015959739685059,-1.6743055582046509],[-1.2831357717514038,-2.3017196655273438,2.1147210597991943,-3.234070062637329,-1.0312116146087646,-0.8474845290184021,1.5983525514602661,-2.7697365283966064,1.2720431089401245,-3.517397165298462,-0.841663122177124,-1.784552812576294,-0.6675369739532471,0.7944716215133667,-2.7427945137023926,-0.5291951298713684,2.6584413051605225,-2.900480031967163,-1.5560932159423828,-3.0851311683654785],[0.10566172003746033,-2.0495615005493164,2.8847439289093018,-2.0273165702819824,-1.0040796995162964,-1.0039939880371094,1.6602083444595337,-2.2345190048217773,-3.018158197402954,1.827414870262146,-0.857630729675293,-3.3477132320404053,-0.9206603765487671,-3.4521093368530273,0.45461344718933105,-1.049700140953064,3.5923430919647217,-2.0749917030334473,-2.343979597091675,-1.5148805379867554],[-1.0838817358016968,-3.1644158363342285,-3.596216917037964,-0.9033281207084656,-1.6105740070343018,-1.65152108669281,3.111985445022583,-6.146839618682861,0.08808686584234238,-4.143007755279541,-1.4711005687713623,4.505819797515869,-0.9792056679725647,0.15255515277385712,0.30792003870010376,-1.8525301218032837,3.832659959793091,-2.809278726577759,-3.3392133712768555,1.5724372863769531],[-2.1726186275482178,2.768915891647339,1.0782068967819214,2.106506586074829,-1.9868870973587036,-2.1670854091644287,3.103924036026001,1.4586126804351807,0.5195574760437012,-2.643994092941284,-2.0938541889190674,0.9014929533004761,-2.2110633850097656,-0.35184916853904724,0.183500275015831,-1.8877977132797241,-3.740959882736206,-2.050020694732666,2.1313085556030273,-2.0462584495544434],[-0.5152045488357544,-0.46241241693496704,-1.011499047279358,-0.08208010345697403,-0.35714051127433777,-0.3619731366634369,-0.48981988430023193,-0.40372979640960693,-0.17988243699073792,-0.6981775760650635,-0.22426201403141022,-0.6319504380226135,-0.5113193988800049,-0.41862061619758606,-0.09903817623853683,-0.44590330123901367,-0.9271681904792786,-0.6417882442474365,-0.8156552910804749,0.2210759073495865],[-0.6640703678131104,1.0116575956344604,-1.2916377782821655,1.5518946647644043,-0.4473457634449005,-0.545592188835144,-1.3530138731002808,-1.5144546031951904,-1.0877413749694824,-1.2616865634918213,-0.6094419956207275,-0.5754111409187317,-0.29752203822135925,-0.7539838552474976,0.8968502283096313,-0.5992019772529602,-1.2010151147842407,-1.557466745376587,-1.3911911249160767,1.2470734119415283],[0.028668319806456566,-2.6665127277374268,-2.9437642097473145,-3.0084645748138428,-0.8015310764312744,-0.7934257984161377,-4.535728454589844,-4.560665607452393,-1.7666023969650269,2.21989107131958,-0.3543095588684082,-3.489182472229004,-0.9780504107475281,-0.6360440850257874,-3.3120193481445312,-0.5343895554542542,1.6213476657867432,1.7725950479507446,-2.8339624404907227,1.1262428760528564],[-0.7694737911224365,-4.449976444244385,1.867236614227295,-3.898160934448242,-1.076783299446106,-1.2799452543258667,3.5961673259735107,4.19913911819458,-2.722355604171753,-0.5225656628608704,-1.8927807807922363,1.284126877784729,-1.9202347993850708,-3.1848959922790527,1.115783452987671,-1.7188365459442139,-4.696302890777588,-1.6978856325149536,0.4525110125541687,-0.526731550693512],[-0.46846362948417664,-0.6453607082366943,-0.6349654793739319,-0.5665899515151978,-0.22626490890979767,-0.14933830499649048,-0.9734421372413635,-0.3514299690723419,-0.22198429703712463,-0.5280866026878357,-0.06139745935797691,-0.9493170380592346,-0.2787923812866211,0.0018817621748894453,-0.5744723677635193,-0.29774370789527893,-0.8447489142417908,-0.13026657700538635,-0.8720985651016235,-0.8951871991157532],[0.5634020566940308,-3.7487127780914307,1.9958882331848145,-2.614666223526001,-0.39472639560699463,-0.7353198528289795,-3.1279637813568115,-1.6754517555236816,-2.5736327171325684,3.030162811279297,-0.5333185195922852,-1.7254799604415894,-0.8250247240066528,-2.7128210067749023,1.9152411222457886,-0.7463963031768799,-3.7858822345733643,-0.917936384677887,-0.4597642123699188,0.8716375827789307],[-0.346440851688385,-0.9372933506965637,-0.6722859144210815,-0.7376756072044373,-0.20449094474315643,-0.4171053171157837,-0.11507196724414825,-0.40996772050857544,-0.36794015765190125,-0.5498994588851929,-0.5083661675453186,-0.6117886900901794,-0.5244240760803223,-0.2929184138774872,-0.48968982696533203,-0.20804741978645325,-0.449981153011322,-0.3810259997844696,-0.8568921685218811,-0.05893586948513985],[-0.5393750071525574,-0.5723688006401062,-0.7916884422302246,0.44370734691619873,-0.3969159722328186,-0.3890492022037506,-0.20460587739944458,-0.6321099400520325,-0.5811095833778381,-0.7585743069648743,-0.5048871040344238,-0.5351824164390564,-0.28750452399253845,-0.6041795611381531,0.13699106872081757,-0.2813817262649536,-0.9501378536224365,-0.7262654900550842,-1.0691553354263306,0.5207971930503845],[-0.9742894768714905,-1.3967291116714478,-0.8233367800712585,-1.2718983888626099,-0.6692745685577393,-0.48014137148857117,-2.369394540786743,-1.3099151849746704,0.1486726552248001,2.268228530883789,-0.29897376894950867,-1.6691006422042847,-0.49008113145828247,0.38375431299209595,-1.3912365436553955,-0.6336756944656372,-1.026469111442566,1.4395824670791626,-1.4596071243286133,-3.3283567428588867],[-1.7720403671264648,0.6372146606445312,0.967679500579834,2.765589952468872,-2.3119213581085205,-1.3178025484085083,0.3326907753944397,1.5117065906524658,0.30517488718032837,-1.1251211166381836,-1.8037675619125366,0.3388432264328003,-1.5704785585403442,0.15831218659877777,-1.5463489294052124,-1.6322197914123535,1.9166851043701172,-1.1349890232086182,-1.6555333137512207,-1.4838765859603882],[-0.7317273616790771,1.5766563415527344,-0.8937044739723206,2.0014190673828125,-0.572319746017456,-0.6680803894996643,-1.754681944847107,-2.8261685371398926,-1.123301386833191,-2.013441324234009,-0.5193217396736145,-1.6412439346313477,-0.6082451343536377,-1.646166443824768,0.1341477483510971,-0.717650830745697,-1.1770710945129395,-1.4174922704696655,1.7052497863769531,-1.9834463596343994],[-0.4982379674911499,-0.8145496249198914,-0.888343095779419,-0.8064112663269043,-0.5548027157783508,-0.231236070394516,0.6065898537635803,-0.4863339364528656,-0.45075851678848267,-0.8703446984291077,-0.47563204169273376,-0.6752451062202454,-0.15841111540794373,-0.34094351530075073,-0.72604900598526,-0.3067786991596222,0.38809213042259216,-0.6677500605583191,-0.7651340961456299,-0.20504485070705414],[-0.8432905673980713,-0.7682542204856873,-1.2142289876937866,-0.4219711720943451,-0.5582578778266907,-0.5852180123329163,0.9837839603424072,-0.6130555272102356,0.5609294772148132,-0.8257012367248535,-0.42402783036231995,-1.1186273097991943,-0.5199766159057617,0.6845189929008484,-0.6815051436424255,-0.21524102985858917,0.05004807189106941,-0.8117880821228027,-0.7863221764564514,-0.9470410346984863],[-0.41736796498298645,-0.09863370656967163,-0.12909255921840668,-0.2043018788099289,-0.19829727709293365,-0.4291273057460785,-0.845009446144104,-0.5013037323951721,-0.017607035115361214,-0.7701401114463806,-0.35534369945526123,-0.780763566493988,-0.17414918541908264,-0.348982036113739,-0.7012845873832703,-0.3407212197780609,-0.9196076989173889,-0.4125288426876068,-0.4095524251461029,-1.047057867050171],[-0.509385883808136,-0.5164265036582947,-1.0631922483444214,0.23387549817562103,-0.36599352955818176,-0.29475244879722595,-0.3456127941608429,-0.6072709560394287,-0.39270108938217163,-0.7915319204330444,-0.3137836456298828,-0.7584540247917175,-0.2899702191352844,-0.16211926937103271,-0.5888914465904236,-0.6279849410057068,-0.1387845128774643,-0.4461599588394165,-0.9148980379104614,0.03716709092259407],[-1.3452253341674805,1.3193228244781494,-2.536324977874756,1.0400068759918213,-1.376953363418579,-1.2288349866867065,1.428622841835022,1.380743384361267,0.5636290907859802,-1.2113209962844849,-1.318776249885559,0.21100586652755737,-1.2476001977920532,0.6221365928649902,-1.0013344287872314,-1.20180344581604,-1.4835939407348633,-1.304311752319336,0.6941408514976501,-1.5677486658096313],[-0.24366074800491333,-0.7873734831809998,-1.2549026012420654,-1.5401710271835327,-0.06312070041894913,0.1583864539861679,-1.8987069129943848,-0.7663186192512512,-0.9602537751197815,-1.2424185276031494,0.15409891307353973,-1.4335741996765137,0.052981533110141754,-1.2190346717834473,0.6497210264205933,-0.03841574862599373,-1.5164217948913574,-0.7282439470291138,-0.3226413130760193,-0.9783710837364197],[-0.11255575716495514,-1.1979823112487793,-0.9675108194351196,-1.2819167375564575,-0.10919789224863052,-0.32780078053474426,-0.7446258664131165,-0.4556404650211334,-0.9827776551246643,-0.4374466836452484,-0.3249600827693939,-0.9554853439331055,-0.227248415350914,-1.2383185625076294,-0.19707581400871277,-0.12273114919662476,-1.034715175628662,0.3470591902732849,-1.449454426765442,0.8022042512893677],[-0.2020651251077652,-1.2241027355194092,0.05310310795903206,-1.597650408744812,-0.2629202902317047,-0.11342687159776688,0.6439371109008789,-0.6252865195274353,-0.5198346376419067,-1.1238572597503662,-0.2168387770652771,-1.194527506828308,0.09397374093532562,-0.9591098427772522,-0.08816931396722794,-0.03937343508005142,-0.8916519284248352,-0.8002124428749084,-1.0327064990997314,-1.4040707349777222],[-0.8723130226135254,-2.818488359451294,0.4761258065700531,3.387709140777588,-0.5258603692054749,-1.5468238592147827,0.1003866046667099,1.097930908203125,0.150950089097023,-1.4685004949569702,-0.9479585289955139,0.125723198056221,-0.8774765133857727,0.4158860146999359,1.5707297325134277,-1.3056542873382568,0.3398878872394562,-1.270267367362976,-1.6536282300949097,-0.8252906799316406],[-0.646351158618927,-0.34047165513038635,-0.8507080078125,-0.12419643998146057,-0.5572972297668457,-0.6309890747070312,0.7172760963439941,-0.7322618961334229,0.4035194218158722,-0.8412911891937256,-0.5179573893547058,-0.7360295057296753,-0.46629828214645386,0.5210788249969482,-0.9269065260887146,-0.5221946239471436,-0.18448977172374725,-0.6088263392448425,-0.8981728553771973,-0.7913143038749695],[-0.22984819114208221,-0.9006651639938354,-0.6149094700813293,-0.8248872756958008,-0.13508115708827972,-0.35514330863952637,-0.2438906878232956,-0.521584153175354,-0.5547820329666138,-0.6220210194587708,-0.2344033122062683,-0.8660258054733276,-0.45824292302131653,-0.3331702947616577,-0.34498894214630127,-0.1751648634672165,-0.5589132308959961,-0.37714409828186035,-0.7459055185317993,-0.34466153383255005],[-0.4421079456806183,-0.27358266711235046,-0.936998724937439,0.7001883387565613,-0.40420594811439514,-0.6540285348892212,0.08897095918655396,-0.6854260563850403,-0.47232601046562195,-0.9989145398139954,-0.4609510600566864,-0.7408185005187988,-0.4092227816581726,0.07919082045555115,-0.33457306027412415,-0.36537230014801025,-0.4681139588356018,-0.6832950115203857,-0.7190965414047241,0.08970791846513748],[-0.556157112121582,-0.7191725373268127,-0.26800599694252014,-0.512470006942749,-0.6076061129570007,-0.5983983874320984,0.8280119299888611,-0.6421114802360535,0.16122379899024963,-0.7566946148872375,-0.2151373326778412,-0.03655523434281349,-0.3169551193714142,-0.0028139057103544474,-0.3337356746196747,-0.5323577523231506,-0.7449034452438354,-1.0531516075134277,-0.575039267539978,-0.8312696814537048],[-0.18248236179351807,-0.4478013813495636,-1.095443606376648,0.5847510695457458,-0.46079227328300476,-0.2974907159805298,-0.7448093891143799,-0.3540605306625366,-0.42559605836868286,-1.0717681646347046,-0.3866962790489197,-1.025640845298767,-0.3564799129962921,-0.3598964512348175,-0.5091461539268494,-0.47293034195899963,-0.7600248456001282,-0.3984040319919586,-1.1920280456542969,0.8433504700660706],[-0.690786600112915,-0.45321518182754517,-1.069638729095459,0.27836260199546814,-0.40218591690063477,-0.24017015099525452,-0.741741955280304,-0.4283531904220581,0.06708203256130219,-0.8466567993164062,-0.32212674617767334,-1.076572299003601,-0.49609094858169556,0.5767571330070496,-0.9798939824104309,-0.5898248553276062,0.10795824229717255,0.33322858810424805,-0.9300956726074219,-0.8304943442344666],[-0.6719692945480347,-0.5657997131347656,-0.4664900302886963,0.10907654464244843,-0.37333717942237854,-0.4991520643234253,0.22047306597232819,-0.6873510479927063,-0.3754485547542572,-0.9622003436088562,-0.6432057023048401,-0.509441614151001,-0.25603193044662476,-0.46759849786758423,-0.3775067925453186,-0.5481650233268738,-0.3475418984889984,-0.5979984998703003,-0.6874396800994873,-0.1336623728275299],[-0.31509992480278015,-0.035661742091178894,-0.7141848206520081,-0.18137387931346893,-0.22278104722499847,-0.2841705083847046,-1.165034532546997,-0.771350085735321,-0.5001468062400818,-0.7878298759460449,-0.20700819790363312,-0.6639694571495056,-0.10328003019094467,-0.6194378137588501,-0.35250556468963623,-0.11123517900705338,-1.2064591646194458,-0.8176061511039734,-0.3248683512210846,-0.3312528729438782],[-0.35210901498794556,0.027267059311270714,-0.6286807656288147,0.29454782605171204,-0.3133586049079895,-0.3550547957420349,-0.5956034660339355,-0.3569053113460541,0.2581905126571655,-0.8423229455947876,-0.11237964779138565,-0.9379604458808899,-0.44448351860046387,0.009835949167609215,-0.9042009711265564,-0.4015609323978424,-0.8578810691833496,-0.6536356210708618,-0.7466124296188354,-0.8127147555351257],[-0.5638405680656433,-0.7277758121490479,-1.1790804862976074,-0.7619165778160095,-0.3659574091434479,-0.3562987446784973,-0.7508192658424377,-0.5244065523147583,-0.2898690104484558,-1.0217596292495728,-0.32327717542648315,-0.7888243794441223,-0.110317163169384,0.25698792934417725,-0.8722701668739319,-0.14596346020698547,-0.3006194233894348,0.3102584779262543,-0.6674951314926147,-0.5098239183425903],[-0.6745913624763489,-0.2648843824863434,-0.7714551091194153,0.14748942852020264,-0.3074512183666229,-0.48746660351753235,0.38039514422416687,-0.581207811832428,-0.21891839802265167,-0.7837935090065002,-0.5338050723075867,-0.25512635707855225,-0.2316993772983551,-0.24782130122184753,-0.4622899889945984,-0.570187509059906,-0.5935294032096863,-0.9150387644767761,-0.6886929273605347,-0.3834816515445709],[-0.3672264516353607,-1.1915017366409302,-0.532160758972168,-1.0066276788711548,-0.30023714900016785,-0.25780805945396423,0.9612564444541931,-0.5679535269737244,-0.9456357955932617,-1.052836537361145,-0.3457448482513428,-1.1474978923797607,-0.5128797292709351,-0.200370192527771,-0.9403588771820068,-0.3556763827800751,0.9646341800689697,-0.1376388520002365,-0.8369134664535522,-0.7431667447090149],[0.22593970596790314,-1.1956243515014648,-1.4157854318618774,-1.7080727815628052,-0.1055925041437149,0.029237957671284676,-1.7024779319763184,-0.4780161380767822,-1.1908646821975708,-0.11979889124631882,-0.10798393189907074,-1.15736985206604,0.002369985915720463,-1.1599358320236206,-0.21436673402786255,0.04766728729009628,-1.8730190992355347,0.7875946164131165,-1.0944615602493286,-0.6691802144050598],[-0.5267515182495117,-0.6569656133651733,-0.564292848110199,-0.5848178863525391,-0.3132074475288391,-0.4519348740577698,-0.250445693731308,-0.43796154856681824,-0.6388837695121765,-0.6364234089851379,-0.17872178554534912,-0.6742193698883057,-0.39907383918762207,-0.484120637178421,-0.3418883681297302,-0.3005204498767853,-0.5200625061988831,-0.6316114664077759,-0.6726077795028687,-0.2855948209762573],[-0.3507216274738312,-0.6518322825431824,-0.9324414134025574,0.24904726445674896,-0.6237865686416626,-0.49183306097984314,0.029239101335406303,-0.3489294648170471,-0.3990737795829773,-0.753205418586731,-0.5770655870437622,-0.6989826560020447,-0.2367936670780182,0.19752337038516998,-0.631424069404602,-0.5270692706108093,-0.16778293251991272,-0.3323519825935364,-0.6900808811187744,-0.014709720388054848],[-0.5768638849258423,-0.25924694538116455,-0.5772355794906616,-0.26829764246940613,-0.3806436061859131,-0.5765531063079834,0.3620273470878601,-0.5349236726760864,-0.24004462361335754,-0.9077688455581665,-0.35709142684936523,-0.35464730858802795,-0.46754592657089233,-0.1589164137840271,-0.32200250029563904,-0.3469146192073822,-0.4461597204208374,-0.7665669322013855,-0.7449294924736023,-0.475848913192749],[-0.0569283701479435,-1.0459765195846558,-0.3330416977405548,-0.5756182670593262,-0.302051305770874,-0.2943728268146515,-0.5004229545593262,-0.6603897213935852,-0.8079513907432556,-0.932441771030426,-0.24910606443881989,-0.744892418384552,-0.24132139980793,-1.0899794101715088,0.02034619078040123,-0.0143395671620965,-1.1597931385040283,-1.0425540208816528,-0.9879723787307739,0.29021692276000977],[-0.7997395992279053,0.02071569114923477,0.036340802907943726,-0.6557774543762207,-0.6065251231193542,-0.44000643491744995,0.005156195256859064,-0.6006565093994141,0.33743777871131897,-0.7875008583068848,-0.21113799512386322,-1.037408709526062,-0.5514765381813049,0.5642951726913452,-0.9647526741027832,-0.2850708067417145,-0.36309194564819336,-0.11176587641239166,-0.6483182311058044,-1.1765129566192627],[-0.7799670696258545,-0.1785421371459961,-0.19286108016967773,-0.13329479098320007,-0.47765040397644043,-0.3582767844200134,0.1666915863752365,-0.6475073099136353,-0.1745317578315735,-0.8827851414680481,-0.422534704208374,-0.6789475083351135,-0.2676674723625183,-0.060431644320487976,-0.6517260074615479,-0.416251003742218,-0.4758059084415436,-0.7144117951393127,-0.6040812730789185,-0.8409208059310913],[-0.14394411444664001,-1.3565541505813599,2.3678884506225586,-1.2993327379226685,-0.11463958024978638,-0.17437338829040527,-1.7852745056152344,-0.47360509634017944,-1.25285005569458,0.8385768532752991,-0.25383856892585754,-1.3335580825805664,-0.1925523430109024,-1.577207088470459,-2.0504281520843506,0.010866562835872173,-1.0022817850112915,0.590444028377533,-1.4343957901000977,-2.367103338241577],[-0.7337532639503479,-0.6305046081542969,-0.9983176589012146,0.29539141058921814,-0.48663395643234253,-0.6063633561134338,0.8956365585327148,-0.7813664078712463,0.6130259037017822,-1.1318984031677246,-0.4575997591018677,-0.47233882546424866,-0.4731259047985077,0.6155164241790771,-1.0130159854888916,-0.41210147738456726,0.14673088490962982,-1.0725150108337402,-0.657687783241272,-1.4443801641464233],[-0.6916704177856445,0.10379523783922195,-0.7042063474655151,0.5190364122390747,-0.4934239685535431,-0.5972622036933899,-0.00552747817710042,-0.7086338996887207,-0.0591127835214138,-0.9722303152084351,-0.2431550920009613,-0.4201342463493347,-0.2245388627052307,-0.009137189947068691,-0.6565575003623962,-0.4299297034740448,-0.8976667523384094,-0.8590695858001709,-0.8088736534118652,-0.7040440440177917],[-0.6136803030967712,-0.27067527174949646,-0.8133699893951416,0.286562442779541,-0.3283870816230774,-0.554688036441803,0.20720016956329346,-0.49117738008499146,-0.09826912730932236,-0.845879077911377,-0.439549058675766,-0.6029595136642456,-0.3829077482223511,-0.10531148314476013,-0.5747086405754089,-0.5462883710861206,-0.3243081271648407,-0.6032368540763855,-0.8790493011474609,-0.2692195773124695],[-0.4303661584854126,-0.8469755053520203,-0.6483302116394043,-0.27321597933769226,-0.5041100978851318,-0.517214834690094,0.6321945786476135,-0.5892558097839355,-0.41830867528915405,-0.9110997319221497,-0.5582866072654724,-0.5129938125610352,-0.3044995367527008,-0.2348109632730484,0.054736603051424026,-0.3317863941192627,-0.6412898898124695,-1.0074501037597656,-0.8331139087677002,-0.010770762339234352],[-0.4568663537502289,-1.9884287118911743,2.6924445629119873,-1.289402723312378,-0.05571383237838745,-0.2821042537689209,-0.8166680335998535,-1.8239119052886963,-1.0508743524551392,-1.5582557916641235,-0.02947169542312622,-2.1738405227661133,-0.1765570342540741,-1.6744122505187988,-0.3373207449913025,-0.2117546945810318,-1.5860296487808228,-2.154101610183716,0.9438662528991699,-2.419344663619995],[-0.226453498005867,-0.7414155006408691,-0.7236167788505554,-0.20007538795471191,-0.6132274270057678,-0.3847464621067047,0.13347403705120087,-0.5790143013000488,-0.4148494303226471,-0.7640800476074219,-0.293066143989563,-0.9578485488891602,-0.5232535004615784,-0.4097365438938141,-0.4508574903011322,-0.5408973097801208,0.22352558374404907,-0.1786954402923584,-0.8840920925140381,0.07615583389997482],[-0.24636992812156677,-0.582429826259613,-0.359062135219574,-1.3187432289123535,0.07707741111516953,-0.11844953149557114,-1.8569941520690918,-0.676209568977356,-1.119870901107788,-0.5895048379898071,-0.1481785923242569,-1.065507173538208,0.19120493531227112,-1.1313422918319702,-0.22602763772010803,-0.14381194114685059,-1.2634519338607788,-0.25213661789894104,-0.23753750324249268,-1.2959543466567993],[-1.0383378267288208,0.8129152059555054,-0.8753349781036377,0.09373825043439865,-0.32942017912864685,-0.531674325466156,-2.3455934524536133,-0.430436909198761,1.0398333072662354,-1.1385153532028198,-0.25169578194618225,-1.2390410900115967,-0.6146836280822754,1.0825284719467163,-1.5024585723876953,-0.4922589957714081,-0.7280033826828003,1.3792569637298584,-1.1994913816452026,-2.563056468963623],[-0.5769065022468567,-0.5258387327194214,-0.6444879174232483,-0.3740193247795105,-0.32913345098495483,-0.10324234515428543,-0.9058288931846619,-0.5609731078147888,-0.3745069205760956,-0.7761096954345703,-0.3470973074436188,-0.6389675736427307,-0.24431106448173523,-0.514980137348175,-0.262368768453598,-0.12048142403364182,-1.1031557321548462,-0.32858046889305115,-0.7372891306877136,-0.27995625138282776]],"biases":[-1.3888400793075562,-0.8625088334083557,-1.0277538299560547,-0.7688480615615845,-0.8959728479385376,-0.662678062915802,-0.6484731435775757,-0.9779199957847595,-0.28268739581108093,-0.6378617286682129,-0.11787966638803482,-1.591836929321289,-0.8442811965942383,-1.6338688135147095,-0.3923604190349579,-1.5740052461624146,-1.1813462972640991,-1.7484747171401978,-1.2908048629760742,-0.41301587224006653,-0.5369817614555359,-0.3619961142539978,-0.5216977000236511,-0.33601248264312744,-0.47143635153770447,-0.6779570579528809,-1.2750498056411743,-1.6156808137893677,-2.246095895767212,-0.3494328260421753,-0.6680246591567993,0.7346376180648804,-0.38975098729133606,-0.3897322416305542,-0.9595470428466797,-0.36775490641593933,-0.5823932886123657,-0.2424890398979187,-1.358612060546875,-0.5909264087677002,-0.5789361000061035,-0.6637082099914551,-0.1982637345790863,-0.6275849938392639,-1.2470362186431885,-0.05152113735675812,-0.2159649133682251,-0.351874440908432,-1.8099064826965332,-0.5523775219917297,-0.5196230411529541,-0.6886703968048096,-0.6017209887504578,-0.4279019832611084,-0.5757991671562195,-0.3574128746986389,-0.5300032496452332,-0.5587819218635559,-0.3702159821987152,-0.6092084646224976,-0.5253735780715942,-0.19602496922016144,-0.20596584677696228,-0.541018009185791,-0.6646627187728882,-0.10371440649032593,-0.5611273050308228,-0.5656993985176086,-0.29424169659614563,-0.7988032698631287,-0.6030688881874084,-0.6588801145553589,-0.46697893738746643,-0.0627739205956459,-0.46400678157806396,0.026397904381155968,-0.6917319893836975,-0.41087856888771057]}],"inputLookup":{"quais so os mdicos disponveis?":0,"quais mdicos vocs tm?":1,"me fala os mdicos disponveis":2,"quem so os especialistas?":3,"tem cardiologista na clnica?":4,"tem algum cardiologista disponvel?":5,"o dr. joo atende?":6,"posso marcar consulta com a dra. maria?":7,"ola":8,"ol":9,"oi":10,"tudo bem?":11,"bom dia":12,"b dia":13,"boa tarde":14,"boa noite":15,"gostaria de marcar uma consulta":16,"gostaria de agendar consulta":17,"quero agendar consulta":18,"preciso marcar uma consulta":19,"posso agendar uma consulta?":20,"quero agendar uma consulta com o dr. joo":21,"posso marcar consulta com o dr. joo?":22,"quero marcar uma consulta":23,"me ajude a marcar uma consulta":24,"tem como agendar um horrio?":25,"quando o dr. joo est disponvel?":26,"quero marcar consulta com dr. joo silva":27,"o dr. joo silva atende hoje?":28,"tem horrios para o dr. joo?":29,"qual o horrio do dr. joo?":30,"quando a dra. maria est disponvel?":31,"posso marcar com a dra. maria costa?":32,"quais exames vocs fazem?":33,"quais exames cardiolgicos vocs oferecem?":34,"que exames cardiolgicos vocs realizam?":35,"vocs fazem ecg?":36,"vocs fazem ecocardiograma?":37,"vocs fazem eletrocardiograma?":38,"vocs fazem teste ergomtrico?":39,"vocs fazem mapa?":40,"vocs fazem holter?":41,"posso fazer dois exames no mesmo dia?":42,"posso agendar um eletrocardiograma?":43,"posso agendar um ecocardiograma?":44,"vocs realizam ecg?":45,"quais so os horrios de funcionamento?":46,"qual  o horrio de funcionamento?":47,"qual  o horrio da clnica?":48,"vocs atendem  tarde?":49,"vocs atendem depois das 13h?":50,"vocs atendem fora do horrio?":51,"vocs fazem consultas depois do horrio?":52,"onde fica a clnica?":53,"qual  o endereo da clnica?":54,"como chegar na clnica?":55,"vocs atendem urgncias cardiolgicas?":56,"vocs fazem atendimentos de emergncia?":57,"vocs fazem emergncia cardiolgica?":58,"tem como agendar para amanh s 10h?":59,"eu quero fazer um eletrocardiograma amanh, pode ser?":60,"eu posso agendar ecg para amanh?":61,"posso marcar uma consulta com a dra. maria costa?":62,"me manda o endereo":63,"qual a localizao da clnica?":64,"posso marcar consulta com dr. joo?":65,"quais exames vocs realizam?":66,"como posso chegar na clnica?":67,"vocs atendem urgncias mdicas?":68,"tem como agendar uma consulta para amanh?":69,"qual o horrio de funcionamento da clnica?":70,"posso agendar um exame cardiolgico?":71,"onde fica a clnica exatamente?":72,"quais so as especialidades dos mdicos?":73,"dr. joo est disponvel para consultas hoje?":74,"posso marcar uma consulta com o dr. joo?":75,"qual  a agenda da dra. maria?":76,"quais exames vocs realizam para problemas cardacos?":77,"qual a diferena entre um ecg e um ecocardiograma?":78,"dr. joo  bom cardiologista?":79,"quando posso fazer um teste ergomtrico?":80,"como funciona a monitorizao ambulatorial da presso arterial?":81,"quais cuidados devo ter antes de um ecocardiograma?":82,"o que devo levar para a consulta?":83,"vocs atendem pacientes novos?":84,"qual a melhor maneira de marcar uma consulta?":85,"quais so os mtodos de pagamento aceitos?":86,"vocs fazem consultas online?":87,"a clnica oferece alguma promoo?":88,"como posso cancelar uma consulta j marcada?":89,"vocs tm estacionamento?":90,"a dra. maria atende a crianas?":91,"posso fazer mltiplos exames em um dia?":92,"o dr. joo atende nesta semana?":93," possvel marcar uma consulta com a dra. maria?":94,"ol, como posso agendar uma consulta?":95,"oi, gostaria de saber mais sobre as consultas.":96,"como est seu dia?":97,"estou procurando um mdico especialista.":98,"gostaria de marcar um horrio com dr. joo.":99,"quais so as opes de especialistas?":100,"qual  o horrio do dr. joo?":101,"vocs fazem exames cardiolgicos?":102,"a clnica realiza ecg?":103,"como chego na clnica?":104,"vocs atendem emergncias?":105,"posso marcar dois exames no mesmo dia?":106,"o que vocs realizam na clnica?":107,"quando posso agendar uma consulta?":108," possvel agendar para amanh?":109,"me fale sobre o horrio de funcionamento.":110,"quero marcar um eletrocardiograma.":111,"posso fazer um exame de ecocardiograma?":112,"qual  a localizao exata da clnica?":113,"tem consulta com a dra. maria hoje?":114,"vocs fazem atendimentos para urgncias?":115,"qual  a especialidade do dr. joo?":116},"inputLookupLength":117,"outputLookup":{"Temos dois cardiologistas: Dr. Joo Silva e Dra. Maria Costa.":0,"Sim, temos dois cardiologistas: Dr. Joo Silva e Dra. Maria Costa.":1,"Sim, o Dr. Joo Silva atende de segunda a sexta, das 7h s 13h.":2,"Claro! Dra. Maria Costa est disponvel de segunda a sexta, das 7h s 13h.":3,"Ol! Como posso te ajudar?":4,"Oi! Como posso te ajudar?":5,"Tudo timo! Como posso te ajudar?":6,"Bom dia! Como posso te ajudar?":7,"Boa tarde! Como posso te ajudar?":8,"Boa noite! Como posso te ajudar?":9,"Escolha entre nossos especialistas cardiologistas: Dr. Joo Silva ou Dra. Maria Costa.":10,"Dr. Joo est disponvel de segunda a sexta, das 7h s 13h.":11,"Dr. Joo atende de segunda a sexta, das 7h s 13h.":12,"Dr. Joo Silva est disponvel de segunda a sexta, das 7h s 13h.":13,"Sim, Dr. Joo Silva atende de segunda a sexta, das 7h s 13h.":14,"Dra. Maria atende de segunda a sexta, das 7h s 13h.":15,"Claro! Dra. Maria est disponvel de segunda a sexta, das 7h s 13h.":16,"Realizamos exames de eletrocardiograma, ecocardiograma, teste ergomtrico e MAPA.":17,"Sim, realizamos eletrocardiograma (ECG) dentro do horrio de funcionamento, das 7h s 13h.":18,"Sim, realizamos ecocardiograma dentro do horrio de funcionamento, das 7h s 13h.":19,"Sim, realizamos eletrocardiograma dentro do horrio de funcionamento, das 7h s 13h.":20,"Sim, realizamos teste ergomtrico dentro do horrio de funcionamento, das 7h s 13h.":21,"Sim, realizamos o exame de MAPA (monitorizao ambulatorial da presso arterial) dentro do horrio de funcionamento, das 7h s 13h.":22,"Sim, realizamos o exame de Holter dentro do horrio de funcionamento, das 7h s 13h.":23,"Sim, podemos agendar mltiplos exames cardiolgicos no mesmo dia, dentro do nosso horrio de funcionamento, das 7h s 13h.":24,"Sim, podemos agendar um eletrocardiograma. Para qual horrio voc gostaria de marcar?":25,"Sim, podemos agendar um ecocardiograma. Para qual horrio voc gostaria de marcar?":26,"Funcionamos de segunda a sexta, das 7h s 13h.":27,"No, s funcionamos de segunda a sexta pela manh, das 7h s 13h.":28,"Infelizmente, s realizamos consultas e exames dentro do nosso horrio de funcionamento, das 7h s 13h.":29,"Infelizmente, s realizamos consultas e exames de segunda a sexta, das 7h s 13h.":30,"Estamos localizados na Av. Muniz Falco, 1200 - Barro Duro, Macei - AL, 57045-150.":31,"Atendemos apenas consultas agendadas e exames cardiolgicos de rotina.":32,"Sim, temos horrios disponveis amanh entre 7h e 13h. Vamos agendar s 10h?":33,"Sim, podemos agendar seu exame de eletrocardiograma para amanh entre 7h e 13h.":34,"Claro! O endereo da clnica  Av. Muniz Falco, 1200 - Barro Duro, Macei - AL, 57045-150.":35,"A clnica est localizada na Av. Muniz Falco, 1200 - Barro Duro, Macei - AL, 57045-150.":36,"A clnica fica na Av. Muniz Falco, 1200 - Barro Duro, Macei - AL, 57045-150.":37,"Realizamos uma variedade de exames cardiolgicos, incluindo eletrocardiograma, ecocardiograma, teste ergomtrico e monitorizao ambulatorial da presso arterial (MAPA).":38,"Sim, realizamos eletrocardiogramas (ECG) durante nosso horrio de funcionamento, que  das 7h s 13h.":39,"A clnica est situada na Av. Muniz Falco, 1200 - Barro Duro, Macei - AL, 57045-150. Recomendo usar aplicativos de navegao para melhores rotas.":40,"Atendemos apenas consultas agendadas e exames de rotina. Para emergncias,  aconselhvel procurar um hospital.":41,"Sim, temos horrios disponveis amanh entre 7h e 13h. Qual horrio voc prefere?":42,"Funcionamos de segunda a sexta-feira, das 7h s 13h.":43,"Infelizmente, no. Nosso atendimento  somente pela manh, das 7h s 13h.":44,"Claro! Que tipo de exame voc gostaria de agendar? Temos eletrocardiogramas, ecocardiogramas, entre outros.":45,"Estamos localizados na Av. Muniz Falco, 1200 - Barro Duro, Macei - AL, 57045-150. Voc pode procurar por esse endereo em mapas online.":46,"Nossos mdicos so especializados em cardiologia, focando na sade do corao e na preveno de doenas cardacas.":47,"Oferecemos eletrocardiograma, ecocardiograma, teste ergomtrico e monitorizao ambulatorial da presso arterial (MAPA).":48,"Sim, o Dr. Joo Silva est disponvel para consultas hoje, das 7h s 13h.":49,"Sim, o Dr. Joo Silva est disponvel de segunda a sexta, das 7h s 13h.":50,"A Dra. Maria Costa atende de segunda a sexta, das 7h s 13h.":51,"Realizamos eletrocardiogramas, ecocardiogramas e testes ergomtricos.":52,"O ECG  um exame que mede a atividade eltrica do corao, enquanto o ecocardiograma usa ultrassom para visualizar as estruturas do corao.":53,"Sim, o Dr. Joo Silva  altamente qualificado e tem experincia em cardiologia.":54,"Voc pode agendar um teste ergomtrico de segunda a sexta, das 7h s 13h.":55,"A monitorizao ambulatorial da presso arterial (MAPA) envolve o uso de um dispositivo que mede sua presso arterial ao longo de 24 horas.":56,"Recomendamos que voc evite refeies pesadas antes do exame e siga as orientaes do seu mdico.":57," bom trazer documentos pessoais, resultados de exames anteriores e a lista de medicamentos que voc est tomando.":58,"Sim, estamos sempre recebendo novos pacientes! Voc pode agendar uma consulta.":59,"A melhor maneira de marcar uma consulta  nos ligar ou agendar diretamente pelo nosso site.":60,"Aceitamos pagamentos em dinheiro, cartes de crdito e dbito.":61,"Atualmente, as consultas so apenas presenciais, das 7h s 13h.":62,"No momento, no temos promoes ativas, mas sempre sugerimos que voc consulte nosso site para novidades.":63,"Voc pode cancelar sua consulta entrando em contato conosco pelo telefone ou pelo nosso site.":64,"Sim, temos estacionamento disponvel para os nossos pacientes.":65,"A Dra. Maria Costa atende pacientes de todas as idades, incluindo crianas.":66,"Sim, podemos agendar mltiplos exames no mesmo dia, desde que estejam dentro do horrio de funcionamento.":67,"Ol! Como posso te ajudar a agendar sua consulta?":68,"Oi! Como posso te ajudar com informaes sobre as consultas?":69,"Estou aqui para ajudar! Como posso te ajudar hoje?":70,"Sim, realizamos eletrocardiograma, ecocardiograma, teste ergomtrico e MAPA.":71,"Sim, podemos agendar mltiplos exames cardiolgicos no mesmo dia, dentro do nosso horrio de funcionamento.":72,"Realizamos consultas e exames cardiolgicos de rotina.":73,"Temos horrios disponveis de segunda a sexta, das 7h s 13h.":74,"Sim, temos horrios disponveis amanh entre 7h e 13h.":75,"Dra. Maria est disponvel de segunda a sexta, das 7h s 13h.":76,"Dr. Joo  cardiologista e atende de segunda a sexta, das 7h s 13h.":77},"outputLookupLength":78,"options":{"inputSize":0,"outputSize":0,"binaryThresh":0.5,"hiddenLayers":[20,20],"activation":"sigmoid"},"trainOpts":{"activation":"sigmoid","iterations":50000,"errorThresh":0.005,"log":true,"logPeriod":1000,"leakyReluAlpha":0.01,"learningRate":0.1,"momentum":0.1,"callbackPeriod":10,"timeout":"Infinity","beta1":0.9,"beta2":0.999,"epsilon":1e-8}}